{"layers":[{"inputCount":784,"outputCount":100,"inputs":{"rows":784,"cols":1,"data":[[0],[0],[0],[0],[0],[0],[0],[0],[0],[0],[0],[0],[0],[0],[0],[0],[0],[0],[0],[0],[0],[0],[0],[0],[0],[0],[0],[0],[0],[0],[0],[0],[0],[0],[0],[0],[0],[0],[0],[0],[0],[0],[0],[0],[0],[0],[0],[0],[0],[0],[0],[0],[0],[0],[0],[0],[0],[0],[0],[0],[0],[0],[0],[0],[0],[0],[0],[0],[0],[0],[0],[0],[0],[0],[0],[0],[0],[0],[0],[0],[0],[0],[0],[0],[0],[0],[0],[0],[0],[0],[0],[0],[0],[0],[0],[0],[0],[0],[0],[0],[0],[0],[0],[0],[0],[0],[0],[0],[0],[0],[0],[0],[0],[0],[0],[0],[0],[0],[0],[0],[0],[0],[0],[0],[0],[0],[0],[0],[0],[0],[0],[0],[0],[0],[0],[0],[0],[0],[0],[0],[0],[0],[0],[0],[0],[0],[0],[0],[0],[0],[0],[0],[0.011764705882352941],[0.07058823529411765],[0.07058823529411765],[0.07058823529411765],[0.49411764705882355],[0.5333333333333333],[0.6862745098039216],[0.10196078431372549],[0.6509803921568628],[1],[0.9686274509803922],[0.4980392156862745],[0],[0],[0],[0],[0],[0],[0],[0],[0],[0],[0],[0],[0.11764705882352941],[0.1411764705882353],[0.3686274509803922],[0.6039215686274509],[0.6666666666666666],[0.9921568627450981],[0.9921568627450981],[0.9921568627450981],[0.9921568627450981],[0.9921568627450981],[0.8823529411764706],[0.6745098039215687],[0.9921568627450981],[0.9490196078431372],[0.7647058823529411],[0.25098039215686274],[0],[0],[0],[0],[0],[0],[0],[0],[0],[0],[0],[0.19215686274509805],[0.9333333333333333],[0.9921568627450981],[0.9921568627450981],[0.9921568627450981],[0.9921568627450981],[0.9921568627450981],[0.9921568627450981],[0.9921568627450981],[0.9921568627450981],[0.984313725490196],[0.36470588235294116],[0.3215686274509804],[0.3215686274509804],[0.2196078431372549],[0.15294117647058825],[0],[0],[0],[0],[0],[0],[0],[0],[0],[0],[0],[0],[0.07058823529411765],[0.8588235294117647],[0.9921568627450981],[0.9921568627450981],[0.9921568627450981],[0.9921568627450981],[0.9921568627450981],[0.7764705882352941],[0.7137254901960784],[0.9686274509803922],[0.9450980392156862],[0],[0],[0],[0],[0],[0],[0],[0],[0],[0],[0],[0],[0],[0],[0],[0],[0],[0],[0.3137254901960784],[0.611764705882353],[0.4196078431372549],[0.9921568627450981],[0.9921568627450981],[0.803921568627451],[0.043137254901960784],[0],[0.16862745098039217],[0.6039215686274509],[0],[0],[0],[0],[0],[0],[0],[0],[0],[0],[0],[0],[0],[0],[0],[0],[0],[0],[0],[0.054901960784313725],[0.00392156862745098],[0.6039215686274509],[0.9921568627450981],[0.35294117647058826],[0],[0],[0],[0],[0],[0],[0],[0],[0],[0],[0],[0],[0],[0],[0],[0],[0],[0],[0],[0],[0],[0],[0],[0],[0],[0.5450980392156862],[0.9921568627450981],[0.7450980392156863],[0.00784313725490196],[0],[0],[0],[0],[0],[0],[0],[0],[0],[0],[0],[0],[0],[0],[0],[0],[0],[0],[0],[0],[0],[0],[0],[0],[0.043137254901960784],[0.7450980392156863],[0.9921568627450981],[0.27450980392156865],[0],[0],[0],[0],[0],[0],[0],[0],[0],[0],[0],[0],[0],[0],[0],[0],[0],[0],[0],[0],[0],[0],[0],[0],[0],[0.13725490196078433],[0.9450980392156862],[0.8823529411764706],[0.6274509803921569],[0.4235294117647059],[0.00392156862745098],[0],[0],[0],[0],[0],[0],[0],[0],[0],[0],[0],[0],[0],[0],[0],[0],[0],[0],[0],[0],[0],[0],[0],[0.3176470588235294],[0.9411764705882353],[0.9921568627450981],[0.9921568627450981],[0.4666666666666667],[0.09803921568627451],[0],[0],[0],[0],[0],[0],[0],[0],[0],[0],[0],[0],[0],[0],[0],[0],[0],[0],[0],[0],[0],[0],[0],[0.17647058823529413],[0.7294117647058823],[0.9921568627450981],[0.9921568627450981],[0.5882352941176471],[0.10588235294117647],[0],[0],[0],[0],[0],[0],[0],[0],[0],[0],[0],[0],[0],[0],[0],[0],[0],[0],[0],[0],[0],[0],[0],[0.06274509803921569],[0.36470588235294116],[0.9882352941176471],[0.9921568627450981],[0.7333333333333333],[0],[0],[0],[0],[0],[0],[0],[0],[0],[0],[0],[0],[0],[0],[0],[0],[0],[0],[0],[0],[0],[0],[0],[0],[0],[0.9764705882352941],[0.9921568627450981],[0.9764705882352941],[0.25098039215686274],[0],[0],[0],[0],[0],[0],[0],[0],[0],[0],[0],[0],[0],[0],[0],[0],[0],[0],[0],[0],[0],[0.1803921568627451],[0.5098039215686274],[0.7176470588235294],[0.9921568627450981],[0.9921568627450981],[0.8117647058823529],[0.00784313725490196],[0],[0],[0],[0],[0],[0],[0],[0],[0],[0],[0],[0],[0],[0],[0],[0],[0],[0],[0],[0.15294117647058825],[0.5803921568627451],[0.8980392156862745],[0.9921568627450981],[0.9921568627450981],[0.9921568627450981],[0.9803921568627451],[0.7137254901960784],[0],[0],[0],[0],[0],[0],[0],[0],[0],[0],[0],[0],[0],[0],[0],[0],[0],[0],[0.09411764705882353],[0.4470588235294118],[0.8666666666666667],[0.9921568627450981],[0.9921568627450981],[0.9921568627450981],[0.9921568627450981],[0.788235294117647],[0.3058823529411765],[0],[0],[0],[0],[0],[0],[0],[0],[0],[0],[0],[0],[0],[0],[0],[0],[0],[0.09019607843137255],[0.25882352941176473],[0.8352941176470589],[0.9921568627450981],[0.9921568627450981],[0.9921568627450981],[0.9921568627450981],[0.7764705882352941],[0.3176470588235294],[0.00784313725490196],[0],[0],[0],[0],[0],[0],[0],[0],[0],[0],[0],[0],[0],[0],[0],[0],[0.07058823529411765],[0.6705882352941176],[0.8588235294117647],[0.9921568627450981],[0.9921568627450981],[0.9921568627450981],[0.9921568627450981],[0.7647058823529411],[0.3137254901960784],[0.03529411764705882],[0],[0],[0],[0],[0],[0],[0],[0],[0],[0],[0],[0],[0],[0],[0],[0],[0.21568627450980393],[0.6745098039215687],[0.8862745098039215],[0.9921568627450981],[0.9921568627450981],[0.9921568627450981],[0.9921568627450981],[0.9568627450980393],[0.5215686274509804],[0.043137254901960784],[0],[0],[0],[0],[0],[0],[0],[0],[0],[0],[0],[0],[0],[0],[0],[0],[0],[0],[0.5333333333333333],[0.9921568627450981],[0.9921568627450981],[0.9921568627450981],[0.8313725490196079],[0.5294117647058824],[0.5176470588235295],[0.06274509803921569],[0],[0],[0],[0],[0],[0],[0],[0],[0],[0],[0],[0],[0],[0],[0],[0],[0],[0],[0],[0],[0],[0],[0],[0],[0],[0],[0],[0],[0],[0],[0],[0],[0],[0],[0],[0],[0],[0],[0],[0],[0],[0],[0],[0],[0],[0],[0],[0],[0],[0],[0],[0],[0],[0],[0],[0],[0],[0],[0],[0],[0],[0],[0],[0],[0],[0],[0],[0],[0],[0],[0],[0],[0],[0],[0],[0],[0],[0],[0],[0],[0],[0],[0],[0],[0],[0],[0],[0],[0],[0],[0],[0],[0],[0],[0],[0],[0],[0],[0],[0]]},"outputs":{"rows":100,"cols":1,"data":[[0.9877447268532912],[1.3465585521548018e-8],[3.927904540270613e-9],[0.008407792735268938],[0.0018486423790311961],[0.02978014274912756],[0.07234440967379632],[0.9999999925997278],[0.000008461973471676149],[0.9853827548039401],[0.273927528905465],[0.0000018579779950055599],[1.0496370487431701e-8],[3.365893954759033e-8],[0.9999986282430612],[8.854977486175043e-10],[0.9999999994957556],[0.9999998431413268],[0.9999609277491853],[4.6204162022368177e-11],[0.9999992769342171],[0.9999994145344632],[0.9999875780231984],[0.9820928576241822],[0.9993220272428568],[1.7892067097343038e-13],[0.9999999499877056],[0.030466380520756776],[0.10691309087883502],[0.9994542093144569],[0.9999999999980358],[5.472472947214535e-10],[0.9999998199936089],[1.398054107285557e-13],[0.0009208089887264768],[0.9999999940876663],[0.9999999999999489],[0.9998279605638939],[0.00002026304144187011],[1.0379822965527714e-13],[3.9951775511029874e-11],[2.2986032801075013e-8],[2.0893693489197536e-10],[1.747637957839669e-7],[0.9999992959257401],[9.977982620717894e-8],[0.07889557702197914],[0.00008223597692931385],[0.4335767074056035],[0.9487201609986037],[7.081594731672046e-11],[0.05266628722983055],[0.000008441762229757882],[5.90801358662094e-10],[0.999999946324144],[0.9999999999376532],[1.9890330774873354e-13],[0.9999342589693343],[0.0007687688467755601],[8.940799589948062e-10],[0.9999999999999951],[1.4146759903415696e-8],[0.00020716031908085675],[0.9975472002917665],[1.5014537393648484e-7],[0.9173811179120552],[0.9849249729085081],[6.296510204243085e-14],[0.0003125859113289851],[4.0350318978823375e-10],[0.9999999981219727],[0.999744868268399],[0.9999999992749695],[0.04493209485253103],[0.00009855981803948891],[1.019926234560748e-7],[0.9990791010886017],[1.10686895554028e-12],[0.9953157434490626],[0.3404897390585977],[0.9999998791489808],[0.000002704063331781488],[2.2069801293413813e-10],[0.12464101218992465],[9.132491981807977e-12],[0.000026931796175968074],[0.000002184631770276022],[0.9999999994863011],[3.4018773123755675e-8],[0.9999576308320206],[0.0029708860394188244],[0.9924875399648511],[6.872453132688315e-11],[1.5249125635816403e-14],[0.9999581106249551],[0.9999999999507123],[7.881240603917951e-9],[0.000025847140948274755],[2.3804661575427993e-13],[0.022812210116471377]]},"weights":{"rows":100,"cols":784,"data":[[-0.9627165587842748,-0.16163710348495797,0.1633875929104276,0.5546277969398523,0.5840031020250034,0.9596242705314872,0.9610385660262906,0.14635258019215547,-0.6943568319429412,-0.5936507216246041,0.45233022272498635,-0.7424048608494798,0.03765223845768395,-0.056492599218247834,0.8564175366149905,0.23393032758706922,-0.018917324098865818,-0.7611774968131724,-0.2881034153370725,-0.8362922088729836,-0.8353628596285125,-0.20864084723022192,-0.2601950264476993,-0.5535181951215453,0.5918377924732918,-0.2684348518155204,0.9363708472687755,0.15730075647061548,-0.23728397519688138,-0.32099708903076163,0.4718745700628244,0.23443917352118349,-0.20243127899508065,0.5197317996880823,0.7884573602040819,0.4152533112863513,-0.5096869380087792,0.6285391585207651,0.874168389149724,0.35930015628537637,-0.6419028029151039,0.590297590995272,-0.627626757735501,-0.5985975146252843,-0.004972168090213761,0.7316310882348268,-0.4277713676430686,-0.321689424825848,0.043597838806637326,-0.5939183265712357,-0.5952671227825592,0.44807296911030253,-0.5555137449214214,0.35450157200639776,0.8598226993983131,-0.867268031109917,0.802681869979496,-0.6496152019809651,-0.34904384755838386,-0.7301206280208069,0.7909764387066087,-0.29237554777933816,0.8843429323176204,0.8722699070053136,0.7538828244835323,0.40315913826949146,-0.3014033017850654,-0.6912334835693621,0.42949995154050413,-0.4323288172158721,0.635948245009454,0.6648371715187023,-0.552169826968026,-0.6305840789004171,-0.6253730208841803,1.1957511918399693,-0.36023841278045404,-0.5779527679932189,0.3802554240797947,-0.6921997315056276,0.5889939398904418,-0.7511722210790662,-0.36856109321464925,0.075810215416801,-0.25177993961354783,-0.3763822314324585,0.22851533295981385,-0.6128693720027986,-0.7053313911020422,0.2339142536970563,-0.06315645412468641,0.6322651377762264,0.02815500466876582,-0.8719072929341032,-0.26977176961942934,-0.6608599712452018,0.6457659136465738,0.5611201788098057,0.7265692975238636,-0.22625585394858758,0.0014422649646498547,-0.4118711876765724,-0.7782903902091802,-0.12045547141877366,0.5171574955642396,-0.21166244762169675,0.7202120193487153,-0.064525813407305,0.347574269699431,-0.7550479645053828,-0.19211973592828072,-0.9270310361934895,-0.8070701992418288,-0.12244178154720022,-0.008095463063255065,-0.330900815801992,-0.363287045593964,-0.609849348320116,0.5498456714660122,0.15488526265889008,-1.0927005202479585,-0.1109127913296757,-0.18052461988373772,-1.4067079238257278,0.4392209100009808,0.4974979841711013,0.1572001193291756,0.8012590179687626,0.1475931951844276,0.7855507373817844,0.1879437394033431,0.6688807608591377,-0.218811370067968,-0.5909442718265681,0.5634745436583979,1.0802117224318915,-0.822183594891472,0.08511044386319873,-0.8554565333234947,0.39836599187062927,0.5163964211778704,-0.7952193837385746,0.12687978034598527,0.9449625265166707,-0.5276784011454992,0.8101925305403345,-0.9091253958710891,-0.30369754467726634,-0.03126830494692839,-0.9926083977673155,0.06189822826748239,-0.3309309091654615,-0.02461726432657881,-0.49393040363116814,-0.9500678984082876,0.08132563941081011,1.1245943205037425,-0.19684380529471082,0.9483004646154264,0.5006535054173101,0.5519652247006058,-0.7304606362910483,-0.6417122149246246,-0.2287037853880181,0.5436787832287773,-1.0142398629333667,-0.6716138944710535,-0.8018060402999251,0.9971313218811391,-0.10486105438953251,0.40477108664696426,-0.17637219735301907,-0.46186735950584307,-0.8476756354980466,0.7902409415667593,-0.1430534064361244,0.24576463333084386,-1.6622991378548049,-1.789848947868661,-1.6429836981657944,-0.11440897031636917,-0.24146231017083394,0.049282800733858725,-0.46498546642825245,0.17526406037590417,-0.4217099090996708,-0.436841467953602,0.013217440485195707,0.9647722945544813,0.5992485951643314,0.6653165982900201,-0.9412292199279185,-0.9936719093588708,-0.646581988071161,-0.8914082184581007,-0.3612109487995655,0.5150021423074244,-0.48678677670782944,-0.6808136840915152,0.06298845524768316,-0.967450130154477,-0.10847995766910673,0.27375053997795273,0.5890136182494072,-1.109322996870038,-1.7912476717580976,-1.0617885914847804,0.0004334182515023323,0.041188654220749854,0.7947789238195149,0.8955874174945775,-0.28038873835418165,0.5233209710777736,0.7450757169245495,-0.2920110703252021,0.19818629234306506,-0.9740876100841283,-0.87539441320028,-0.24111078483810935,0.2740485821667875,-0.5334925669349524,-0.8597688754966738,-0.2907622904434289,-0.49804007772217046,-0.3544550497722834,0.040868512967470565,0.35730515381929234,0.7876619516919492,0.0425758214528444,0.4016300573670166,-0.567848240706121,-0.41742347467376256,-0.47481199283637904,-1.2647098761951834,-1.2421703670668014,-1.5757164830659747,0.7032843718202011,-0.5458513663797059,0.030785489204513752,0.13563768692936157,0.6416095950697818,-0.398603465073981,-0.7603778877468221,-1.1343280306313543,-0.642975920518621,-0.04708142949135335,0.9349690056683667,-0.06606082740397057,0.4875988422062323,0.606766552542682,0.8100376078095194,-0.8054639488387678,-0.10950842364510797,0.43267905652785993,0.968212012691778,-0.10602298248445366,0.12602051108737514,0.3654991203213027,-0.09248266695144831,-0.6792848726881353,-1.2461491682536734,-0.963097981876693,-0.9089225944516063,-0.5068895667518285,0.7143958134875579,1.446923963072804,0.6099361454263873,-0.46411421345320414,0.6163650676191257,0.2049607895806973,-0.5554688281310256,0.01017261146631122,0.6722833948970021,-1.04759684080136,0.6319674075612493,0.5285290821612898,-0.5321213797030246,0.4378812039648169,-0.5707624009899298,0.3203492639173222,0.7286663113466232,0.19322180774794956,0.4354021804755432,0.6775082131548662,0.024341252184480022,-0.6309230546047956,-0.34215953936987664,-1.4088941334543357,-1.5870650467713558,-1.0957365264634447,-0.3749730528526958,-0.2747508460950274,1.0275216769522355,1.4300128820794489,0.6599497887158191,0.8196578621515159,-0.4911791920879959,-0.432650815290155,-0.3357306242232081,-0.2666765778841818,-0.07658964941977459,-0.96011367219774,0.39113608696697205,0.2575824617800293,0.12984903068830206,-0.030644996839227865,-0.8977354104258894,0.748681084630994,-0.17042305806587468,-0.558553423296419,0.24236027619412506,-0.038719022843964876,-0.024376101008897033,-0.3551682085650473,-0.5266155821958355,0.2317378182809611,-1.4667896521063897,-0.9010948245680893,-0.1297880416250953,1.1530343201191864,1.29147799355437,1.7674827065594012,0.3694224892930799,0.05286717368894315,0.043437806138642156,0.4527372293486369,0.7543324216323587,-0.017682595432617555,-0.6105799455547567,-0.14639397254531872,0.6286386159857512,-0.5348591083203266,-0.22856965542680951,0.7736114591425627,0.20418106241803946,-0.6478114998257423,-0.01073553533280647,-0.5345297818949037,-0.07009355780701355,0.5515970050503204,-0.7579388577363039,-0.7560160465449086,0.07585779498940677,-0.9882938978994533,-0.41160615915325877,0.8482462232213299,0.20087477677800147,2.1248078422801258,1.5338910336462195,-0.2168071338911397,-0.03577867353753566,0.04763719682605542,-1.09437670679409,-0.012182790498120561,0.2951361848342579,-0.6655512677911122,-0.4690867750587162,-0.8664749383894765,-0.046657816603829484,-0.39717511733705757,-0.01650292351965174,0.0619364607325508,0.44917891834893314,0.23877562283945092,-0.9033119412593007,-0.9907801632261121,0.5148908698957261,0.2429976224103572,-0.8198511895555818,-0.09718582311390873,-0.8522329312185419,-0.8639007667119878,-0.9187599510629174,0.9275721495664362,1.788671788792388,0.34330969463553157,-0.1392040140187722,0.8920020333924247,-0.34416125087241484,0.15424342820861406,-0.19827920410717295,0.5813097358650842,-0.030199922582414326,-1.038273026974531,0.5182081826836177,-0.7435394368255663,0.8876100391519225,0.8909422869820204,0.679628876215588,-0.8396313259048003,-0.39888452321025947,0.6832633871289444,-0.4229532402703052,-0.6050536929350179,0.12313300063334139,0.017531689166205143,0.5162914084873739,-0.6124845119291793,-1.3020687284566526,-0.12953748986560207,-0.4146560452917863,-0.2731005230267472,0.36171150513574923,1.266039608560261,0.22634115278802353,-0.6629069594480846,0.1376684899129633,0.2948972852479532,-1.1962683126595375,-0.3876610626262199,0.2820514717650267,-0.9228211565596768,-0.44744023782244374,-0.1788811103358182,0.46841796732694196,-1.0270084530198353,0.5290109376281968,0.6513404905799465,0.3807538353693431,-0.3571673949338132,-0.27011966409309407,0.5831727042006536,0.17660105911160495,-0.6115673448293356,-0.7284891659543985,-0.5671564302515875,0.21219193705498246,0.28600975943255375,-0.23717470638678365,1.2026270531488117,-0.34180262048494336,1.0417494356052728,0.271402500100607,-0.3574112643974051,-0.3302121845736491,-0.19881195798437434,-0.056030015656282045,-0.5142413212269815,-0.8322596580541994,-0.24498467732988644,0.3776596486191416,-0.3609012017102077,-0.2276608543903006,-1.1110049140290965,-0.7910711227102846,-0.9513052041242278,0.45866025950936434,-0.840613942237829,0.4622724488456826,-0.7663643963475796,0.864157674800701,0.1855974133054171,-1.0173809883444809,0.23697494422816145,-1.1513110886968354,-1.4428838096023187,-0.024415380843909314,0.12448087729442044,-0.221315250990256,0.5692277627973639,0.856126954304718,0.33010197012831743,0.1889667334739722,-1.0862653094898285,-1.0268426935290507,0.1447745034580097,0.7462530074368247,1.2024392410073441,0.7232508030638076,-1.2107336082863867,-0.8473340555491677,0.3381808950739592,-0.8991977466742953,-0.7608794677075971,0.38963662011351174,0.45504466138954763,-0.016479254592404624,-0.10117376532407257,0.6457597057106447,0.6386269362569483,0.6377561392534992,-0.734906473595392,-1.1069431887209495,-0.9764772989137218,-1.0226185176735059,-0.09079681719044856,-0.48246662039469795,-0.30843649418901614,-0.5839265416187907,-0.49454754377141963,-0.524044557196781,0.2350288545255247,1.0002246738377742,0.8006698860976246,-0.5407687445286994,0.15628716550806426,-0.6787128104212424,-0.20930962254838004,-0.19138610661146627,-0.7985318308626014,-0.594866403259017,-0.7583638825457082,0.5507455609739665,-0.10526287890930494,-0.08549134625985502,-0.5830269524159009,-0.7636782836507794,-0.7766986770196626,0.3730629149799991,0.4892946621032215,0.5630334713561513,-1.2078216468219105,-0.8546560687636433,-0.8733609539765187,-0.6713102878500373,0.6322247446918543,-1.2341139972963744,-0.17551905125496933,-0.31993262639518416,0.08935726724725998,-0.4107824077489037,0.8070240314382834,-0.6493043717129517,0.4062702770396677,0.5008908790221193,-0.22318248460462645,-0.9129368281035711,-0.2369717735606392,-0.28055224117134886,0.33874491464110423,0.09723575021156783,-1.0171557421383277,-0.35091681062183133,-0.7904446560776448,0.8541745626483874,-1.0581615834549734,0.7017251244712683,0.2617513679553309,0.0809041354806656,-0.4655452281010403,-0.3928203554110212,-0.6092454301653991,-0.6869750605286842,0.20599279784377925,-0.022633474341571282,0.08752113241688574,-0.24472649689511292,0.6903871543945379,-0.46449089581006425,0.7606839838936127,-0.5367429688039927,-0.9758045971187654,-1.1731587772333487,-0.6489313735114134,-1.3606259989057918,-0.623267352976027,0.3278581671460635,0.5579495091620846,-0.6481023263138813,-0.0437284134622312,-0.8317203051953928,0.7064526595106341,-0.8385754258246099,0.3413451212334902,-0.4051773383374751,0.8798819480867445,0.27305637822362455,0.6126166533117116,0.4763223228275976,-0.06967522088725664,-1.2484822696668174,0.08342835055174992,-0.02170882233252464,-0.061199862876011306,0.12739140725370207,0.7405567453590406,-0.25141625846585447,-0.5420787383557106,-1.095215332196479,-0.6187241307277859,-0.559582716993976,0.35149725505914603,-1.1088009588430818,-1.1788664384956917,0.6844607002104105,0.2611615635307338,0.44441400974820017,-0.09943340809818467,-0.6192752485307306,0.9617864602140329,-0.22034129605199992,0.7669634310798138,0.4332532343220086,-0.6666833963793855,-0.6725383761044419,-0.6754281578235167,0.47610785102098246,-0.8903474029797976,0.48061204083544196,-0.4787668246476243,-0.35765480020152274,-0.46466635943262086,0.6765350136071194,0.6713572563603057,-0.489532843545142,-1.0656520457606518,-0.055090203850523836,0.33829513776751824,-0.632606314237978,0.42507036019297517,-0.2573574546362742,-0.9901485809416428,0.0767987212070786,-0.09710032404614104,0.9752644293992626,-0.24941902624453727,0.5319460410399327,0.41726736616308613,0.4390917107225615,-0.1884726780325978,-0.36183335104913716,-0.568978303345953,0.120616498262036,0.8005020500540598,0.200233031774723,0.30687013000301394,0.22475743808033338,0.13373599402175038,0.0035130655687484625,0.6072058797721436,-0.19663166771043736,0.5393453785884391,0.9087751246261352,0.18600346751852492,0.018177914258573874,-0.9095011005488364,-0.1286593756286729,0.6403094013200213,-0.5721692067680246,-0.8634607556613045,-0.7936323431552488,-0.4668401767154128,-0.29180046761635187,0.6350144645007384,0.5495084569326005,0.23687200160147248,0.9105718640238643,0.9227306585971802,0.7985641577208876,0.7582496683885296,-0.8146972014185779,0.8464373768325362,0.7288549944088951,0.6620416650688955,1.4535616075419342,1.4950275416782983,0.11315091497212088,1.1403666136737554,0.8220258377761078,-0.697132662719148,-0.13131822456804967,-0.2739564163767891,-0.7008955649633033,-0.2992481780863933,-0.023955215894994268,-1.0555560424968689,0.805768654415779,-0.661455780700662,-0.29499021106383183,-0.6322258973688515,0.4301392539806683,-0.9254278870492476,-0.17429904860997136,0.25319749308777206,-0.6776712093727256,0.3350067368604394,-0.66304656714404,0.737248580936195,-0.6407492658717215,0.037969880762248796,0.47586702088588284,0.32109271796950456,0.980782675780133,0.694761822053497,0.6552067909068043,0.230503097727063,0.2230926672284174,-0.9069040278825768,0.7903987842459127,0.2772209129411755,0.5183030716899324,0.036591210248676086,-0.18332645592904492,0.26237983576777635,0.60542258623552,0.677163719669472,0.5518137513811068,-0.260107250058468,-0.6750690101079999,-0.6893638698732341,0.7428864555557484,-0.5302928718902189,0.568423267201927,0.7916700527922352,0.6259814005670677,-0.21171654246701824,0.33177151440893826,-0.24373099352052044,-0.45443476671160854,0.29323619540206136,0.19659669812854946,0.5466212641039316,0.015139501867200483,-0.12972938077594726,0.2735141456647279,-0.6875777754499502,-0.2491849412897567,0.7680292991540744,0.48572205745847813,-0.5758423994710087,0.6911498637421287,-0.2990047572816058,0.4051125413060746,-0.9071906893225508,0.4487486439381932,-0.3805569415297448,0.521888138523464,-0.2581151230102765,-0.47556195393415734,0.7257851940645419,-0.14638787430574496,0.49109105137183706,0.34372309190891026,0.915804182423267,-0.11397864125857077,-0.29074094066555123,-0.7069618889590708,-0.7492203260892721,-0.9445303728250248,-0.883039662152865,-0.0677781732485888,-0.8892221169454346,0.5227007117114265,-0.6011074120879326,0.0019124976353794923,-0.565672361135006,0.0057194511952840645,-0.7917845187551096,-0.7783536439509307,-0.7107954769406664,0.4232003306543554,-0.8293331861887001,0.7298589514842736,-0.09426344846349076,0.22469024262693038,0.08888889713694992,-0.30942041802645126,0.3276663522574901,-0.292021590025503,-0.6588434393398626,0.4183104082746295,-0.4550225098777994,-0.16266846284780215,0.8573927459893229,-0.31639675382029864,-0.11421824379948205,-0.06526304674777887,-0.5077470923377476,0.5155062945509209,-0.8386821852812191,-0.41154370322030503,0.38408294721382574,-0.6435418679363758,-0.4325828186924923,-0.8187278858849792,0.968285483366571,-0.6071973988773094,-0.13933045453468113,0.5982025086370109,-0.1721442221343584,0.1303704294304402,-0.18537406953440172,0.819734060583569,-0.6330765903047066],[0.5821203094381979,0.625888740586036,0.5570415319690993,0.9051585023935147,-0.6665152895142226,0.5350697155225133,0.4897793459047701,0.8405952129734537,0.0716302422552535,0.6800610303560475,0.18487481374109183,0.038893967281879105,0.6024434711829515,0.24490592702494204,0.6875893165264789,0.14252065784276452,0.4314659613185885,0.36290296200367145,-0.6841758897469936,-0.3715518207894939,0.22472697194609825,-0.38749443743971157,-0.6840776557483177,0.40361200323259894,-0.1374614743736473,0.4721592415627722,0.43610322063987783,-0.5112599145660757,-0.6748017393092958,0.9218163220005668,0.6143111028433301,-0.894130704117543,-0.1948936310520033,0.7363108738004682,0.6237129140705895,-0.4321345724142614,-0.33019440372456327,-0.8757914860806921,-0.5547040910010933,0.7249081029058742,-0.3312837743855774,0.020570607875115207,-0.1604581398628492,0.47661837904311927,-0.7428433944176481,-0.8307273116587727,0.5948179029885375,-0.27664659876597597,-0.14586660969790013,-0.8057449040154883,0.47100560720472123,-0.5582159604054605,0.7954034459494772,0.6831263688370603,0.2372205737870885,0.06745232934487277,-0.14916687657021188,-0.7796730603091411,0.8405867760157227,0.9829374342117203,0.5951318246092379,-0.6457811347472353,-0.009699714826990165,0.8367597782357108,0.3064109186908494,-0.27886121377711526,-0.040591078042359556,0.2118335717015631,-0.6220424535687028,-0.14995272443287258,-0.8635205641999986,0.845273852311044,0.3003443087257265,0.25468158219246734,0.3590809810500307,-1.1195877925153355,0.6245831007514716,0.0865782380592732,-0.3222368275714962,0.5673857718138652,-0.9024505631207785,-0.7104751104422274,-0.9327063504430826,-0.05197454460827333,-0.783257425148719,0.7246870307100273,-0.19628857799973465,-0.6400144690346136,-0.8619922168013755,0.5934790463756319,0.482103391473368,-0.6481401144384493,0.5559017906379614,0.09164402870314724,0.32863424778651446,0.40379419764641067,0.9249212630384362,-0.00007047001072596483,0.18647197607870158,0.4501623309727957,-0.23484585592438884,-0.26406044024900927,-0.21008396474806898,-0.7254011054292165,-1.1523194090741986,-0.1758521506885935,0.8456166150123422,-0.6740316594698114,-0.6230746827201149,0.24652550035486778,0.160000944217862,-0.2437622875165646,0.27819235685008437,-0.9065604000771817,0.7752293016445544,-0.47684433096216894,0.5455333413807586,-0.41860247060516076,-0.634984212651056,-0.7557143893627625,0.4627746235932543,-1.1080087589448724,0.19028460392013438,-0.002712954639500213,-0.7387856480920848,-0.4004137765295675,-0.02988513810824008,1.2051831923236256,0.4492317306900076,-0.7831802259876626,-0.18494162873724201,0.05977362812605773,-0.25955358310512483,0.668655502595799,-0.3017144982127413,-0.9896438328099987,0.4146917705805747,0.817316548705958,0.03695085543958284,0.6107926585062371,0.9130892549860641,0.7375478019783626,-0.8925398115543615,0.9558779637763603,0.16653556133254493,-0.8999952531881809,-0.5419769356078139,0.2667635832732224,-0.8606884182969713,-0.8372523874511618,0.952849985031936,-0.7465363336430137,0.8439590749253413,-0.10014284930059865,-0.43956086833840025,0.7330175650939469,1.22485227871048,0.15782893578365564,0.9845952538996907,-0.9747649746212649,0.21866356591151226,0.17247493696047722,-0.212602237931539,-0.6883836755658547,0.4608067738823306,0.7104816293458694,-0.9438950675646717,0.227362979716479,0.8792915228875173,-0.6597082955721868,-0.32037865719316977,0.8909719024342108,0.6344234254896586,-0.14902031811449232,0.801323455346327,0.6804100217933099,0.2198809251829724,-0.24133633289666367,0.06728227746492094,-0.0579205771758459,-0.6857191315694144,0.11331622103216944,0.10521222692351667,0.1688505496307161,-0.16250678757693052,-0.08115444635110898,0.4431588591091272,-0.8616824005862115,-0.18420024916767655,-0.48119560205797135,-0.2095049756886774,-1.0670498188632218,0.0854868516097222,-0.17281593623792013,0.2741078709576667,-1.0066715830613595,-0.1043236297593303,-0.9836589422442558,-0.3930449068654134,-0.8686501489497098,-0.8345497002065375,-0.5001953564438816,0.2176061019247902,-0.7090661047385797,-0.33008183051223977,0.8666423153675175,0.6830439722392163,0.5505830388172233,0.5287430398409741,0.429047016850351,0.024527921721934104,-0.1923780880253503,0.12428465624534257,0.5760095012067735,-0.9658299225215,0.8562853678554057,0.2824314354733797,-0.04202574782444254,-0.5249747196616747,0.3371372569711362,-0.34224906079837136,-0.30755971487609657,0.5458332079084018,0.7770177785198266,-0.3702718901762119,-0.41784200479616634,-0.1378453906820798,-0.2119611313360899,-0.7220477284628113,0.008207610947954198,0.06741881175712415,0.7610127211952802,0.7625476836346805,0.3793172598452463,0.3728385295588388,-0.7616798003270728,-0.08803470195649805,0.5853522819315462,0.6655705954376334,-0.5977750789109196,-0.15002744589304934,-0.6983601206345984,0.647440887906945,1.1930734316953457,0.948479759599445,-0.588129826163973,1.0075869302793055,0.6389788047038368,0.8986961704016151,-0.34410945289781303,-0.6568699590356564,-0.19084611486950245,-0.8767135709405661,-0.05412614506674264,-0.7511388125062562,-0.5008643862653425,-0.18858878036041546,-0.5761411433199207,-0.4697927578976759,0.7102064276415209,1.1194955135500244,0.3951027554914489,0.30590947400611246,-0.20842067205294318,1.2436648110836284,0.21493800736244087,0.08230038547532996,-0.3744739357248113,-0.5835079380712629,0.2176287606051047,0.22264199164604762,-0.04650751739260382,0.5619573199659254,0.5495663092788537,0.05275970384309845,0.25405404235560647,1.2829578372766712,0.815290554045365,-0.6295805346269652,-0.43439192775078633,-0.1807018107471838,0.3307707097114202,0.3311944081888006,0.3212747444152954,0.5498304921611954,0.27505443083620956,-0.38851548038500405,-0.10694674008726153,-0.24959175397300315,-0.13864405219933099,0.838572956428507,0.5350004985128644,0.8251876162862732,0.16715085836841032,0.014745683901327094,-0.21810845573754947,-0.4778408112997014,-0.12029163900872135,0.5168567866337473,-0.06209001356885219,-0.014715017219318928,1.2499570787012966,-0.23931625740765217,0.5108120396866505,-0.6586212245811286,0.8676771487402413,-0.8037452238147843,0.7994713162236539,-0.8766340685185422,-0.5238156788066852,0.5501629529840262,-0.2813260357448091,-0.3138117109020921,0.448529830214399,-0.6833578494530038,-0.014148559097018377,-0.672591219113966,-0.4260458803461055,-0.5465953722326853,-0.6231589691420568,-0.4901671378183482,-0.4344613028289995,0.23720460353771308,-0.2713344574641694,-0.7842204097562268,-0.8336193753194853,-0.7784387928870038,-0.010938873432091009,-0.6891731090575861,-0.4467184220431561,0.6802904664865626,0.9693987569492625,0.6441541196753293,0.24461564460182553,0.3836169519678461,0.2549448168702608,-0.29879311774891204,0.8684624198236689,-0.1546765758166371,0.38926513957090036,-0.7870623179373154,-0.5791473580592169,0.6645360666560574,0.46903343179582696,-0.21101878361855023,-0.46893101761527756,0.733382408904425,0.1327191879738854,1.2759097946674889,0.14517812658464596,0.3596073552921411,-1.554987541302262,-1.8505168718933258,-1.508606235779738,0.4737297066651792,-0.008811116652080217,0.8230353784624448,0.27672550795612394,-0.7006726272150305,-0.8462567469631216,-0.3650021225886194,-0.9914501985843035,-0.3427516664861143,0.5710767957549812,0.7302966391302811,0.46821842940556463,0.7887994943227751,-0.6162351531960205,-0.1711636466483437,-1.293160723937789,-0.539305261630202,-0.07471765479340656,0.2059779333645171,0.3034014167852824,0.16126051619064968,0.1566703386210092,0.25171793458607883,1.424711402557224,-0.7941562978497904,-0.7814015207807234,-1.3710376372399444,-0.8390320405449465,-1.1915827855492986,0.759085875922412,-0.927636653379172,0.3754075868603511,-0.6665450647773572,-0.0583558796241651,-1.0198987215666637,-0.7032105251548239,0.3486152781620418,-0.3747199319206411,0.1220810491698882,-0.3041738981148603,-0.3400916888483919,-0.8334265395926046,0.28342896970361037,-0.5824090539299118,0.1236414061654096,-0.03449373121240472,-0.3017677189366059,-0.10258919733386059,-0.09052897853550312,1.4837397438120792,0.859852108803008,1.1486086451984834,-0.16443913511188848,-0.8550687111053465,-0.7713750669702981,-0.9763335203627801,-0.1431648028270025,-0.8338026664574814,-1.4931512870197299,-1.3455764614073904,0.560169088367955,-0.22158975920211524,1.064404513889375,0.9641615273267674,0.3039276262561805,-0.2833658128405166,-0.9180273767246029,0.8255180302535865,0.7364302092601158,-0.17398953584172985,-0.34658397909973354,-0.5322085058848082,0.7652548674315188,-0.0851956514427082,-0.020962893720909263,-0.4217909333587714,0.49616784572876454,1.0926324904507159,0.1031651268088797,0.7666847766239431,0.5211061043325973,-0.5239074927954793,-0.9640889560371009,-0.9278306454763428,-1.3677520474840867,0.16309279825733233,0.41447180799245753,0.08774127589873101,0.43189754695221405,0.37019113563894296,0.7022249249470861,-0.7463520224128894,0.2482357302598794,0.689821308538006,-0.42830692929450564,0.8642221642483571,0.061485356041565326,0.8841420267111613,-0.45107207761508167,-0.1253718025921039,0.24726368278164793,-0.459452697713628,0.29335252794776273,-0.14582179159713987,-0.4496412484589409,0.6261400873369051,0.3748749690321024,-0.729073365106793,-1.032096643618008,-0.8224228445899886,0.7248594778687204,-0.005322756725349416,-1.0411643359522882,-1.2820675854476677,-0.42326101678564804,-0.03374554137492825,0.498071593297969,0.3094036562830117,-0.2096053919339953,-0.27963824217088373,0.8689866615031913,0.3142060613211971,0.6284431598001579,-0.3404813599369385,0.7389565006226013,-0.6940660526744309,0.2813800109227873,1.0200649662325747,1.1245222726611859,0.17958561646671803,0.303815275700966,0.7186802263572393,0.6005749670209334,0.5006813734068432,-0.4071800553500294,-0.31825271956130524,-0.3486296505547394,-0.5973022170405076,0.32299913554177784,-1.2553052347011606,-1.4403729176998032,0.0417599923836486,-0.7350267686758775,-0.13454850558510723,-0.4481293115464829,1.1367727975346613,0.1946901837196861,0.17118702861359014,-0.4958720191195997,0.12533189077705872,0.9274513259118644,0.8735580764526023,-0.5021835506796578,0.8770256286942981,0.8887336293850651,0.43938621101937125,0.8496978521225316,1.0998495615171668,1.1079176249892566,0.021922535355740472,1.245341890393835,-0.343840854357102,-0.911859859631647,-1.1832576080431205,-1.3100446751863672,-0.592358211445135,0.3696798144843823,-0.24465696140064191,-0.163003849751754,-0.9162842448203293,-0.24162004276302135,0.5811454400923293,1.0532000709881457,-0.10850295335418063,-0.11135276882595274,1.1532906108519196,-0.70851711449684,0.7313287744348305,0.6353754830566761,-0.8030059103210468,0.14822600874737,-0.43816630605231655,-0.5488520883451719,0.40897284099429887,1.8243388340224318,1.4758251350132325,1.5451039285517685,1.3271332853285691,-0.30344101277093716,-0.3518225757107346,-0.6432417172810169,-0.08732476473766748,0.4945560674856468,0.40158552576773493,-1.2490577276033303,0.42725438029724866,-1.3017250980991377,-1.2267363407176075,0.7024858449962915,0.7749943299656674,1.0650347777462275,0.278799534972753,0.47203374482963156,-0.10141231991820143,-0.34925947318369793,0.19931758038445063,-0.40879187950614226,0.7941717533068942,0.01797142045692324,0.5792961529084188,-0.4682486848786997,-0.11860940561479305,0.6286073394234353,1.8479270072583391,0.3215705537568815,0.20344420202907854,1.030064261801573,0.3005159878766807,0.25496428278190325,0.10038511532279451,-0.3556895599484363,0.10874556467131717,-1.6734853513394423,-0.8782460399827319,-0.7319022066293371,-0.29457262540121215,0.052666305961104797,-0.4372100608902331,0.7076864282256602,-0.1472479725602955,0.09237267007758358,-0.5760465632259604,0.06793367916009119,0.7187438217947991,-0.7829632355691178,0.44038732651238094,0.25947324631995783,-0.052318440754022845,0.3159991404506279,-0.19014089113108656,1.4317608890209463,0.33386056299186395,0.5965768879549375,-0.23237486187847511,0.7243205775665887,-0.3945592640733654,-0.4364986167465405,-0.5819263042467432,-1.3871412370262266,-0.8413358960347458,0.2791127255610217,-0.9013061465259476,0.3353065154654439,-0.8435344547449315,-0.5212650882381417,-0.07236974048634333,0.10117381097727876,-0.49523846575634844,0.43530988412315785,0.9293364470857788,0.5712004359543359,-0.3829461673906464,0.37341722036908265,-0.9900546015384736,0.29206018674063233,-0.10764913330175178,-0.47801839463432383,-0.396207989876416,0.07518366278119472,0.9025383007595497,0.3333307501784894,0.866139119090665,0.4393298422370379,-0.72212668741844,-0.8968420180678143,0.25477910207540927,-1.1255630111643171,-0.5003642272936661,0.5385812744088061,0.592513103040633,-0.47900127082964816,0.6542418877776381,0.5657455419268275,0.8548791044113607,1.3366507449608234,0.317828233796111,0.3967249471244673,-0.2080529588793512,-0.38632248022889315,-0.28061821625553,-0.7861947616680616,-0.6227791367085886,0.9491698288856554,0.15310222431745424,-0.8141156909661477,-0.15223625135919658,-0.7226720362309563,0.126127110894827,-0.8171720879026229,-0.429270046923135,-0.47310601264126373,-0.39394399922761236,0.5326894100163623,0.8216650022001297,-0.6279553595807432,0.41857783746425525,0.641272509997864,-0.17034096036264446,-0.6505731534844591,-0.4838449837730821,0.03606743483338254,0.8646580051861903,-0.03246396584452453,1.0536896598372627,-0.01432122672601988,-0.34463245648446283,0.541298594860746,-0.60265768037958,0.39195285183694617,-0.18642263926263625,0.06483040569272674,0.8746615040510467,-0.4956230234552409,0.07142903459865241,-1.1913709590297188,-0.7730614255215263,-0.436783315047466,0.5691085429688556,-0.7102016045544355,0.7155500580486808,0.8522678021696883,-0.1570897348415806,1.024433641432957,0.6718978632029288,-0.4841006274522262,-0.6319264472048667,0.20582664348747381,0.6415127950047744,-0.18429895124370435,0.7729171292092819,0.4854520071453201,-0.7378477480700922,-0.1228585269811669,0.9500481606475456,-0.5185305809228486,-0.4183758428606039,-0.581910496412712,-0.6799024843086605,0.31800262203611424,-0.6742891440711757,-0.9113428825012325,0.16122001792951277,-0.38844253587660793,0.5011592206697467,-0.5283199464253383,-0.9170222177071806,0.6205662496796481,-0.7497941126563354,-0.02053883847622059,0.6930284469463353,-0.49800105316669346,0.09643757365283136,0.08976457660936424,0.9607668905535871,-0.03845612687434318,0.19372504814419123,-0.02113481696293895,-0.1929137439470342,0.3800602400030964,-0.7411703801004658,0.33539849606920735,0.426861497834762,-0.9680864178455973,0.0985589032446299,-0.269884888633553,0.2194073518339299,0.39184843432606176,-0.11137069908814712,-0.24539514792754163,0.647551544882439,-0.07297289258664588,0.34381802574431,-0.1437120729000432,0.7507397118071406,-0.06805338558784395,0.41010329200055895,-0.4938700264871552,-1.1100317469422438,0.1982190065290255,-0.4506197515434648,0.5951786893375851,-0.5316307997387905,-0.46805983535379064,0.04494757195862043,0.03021909677278003,0.5617236746383384,-0.39414251563330616,-0.40777370463582757,-0.1542951444540119,0.5095231694631088,-0.5868925064385075,0.16681746401448727,0.7226027581402199,0.22176724261785696,0.7002896420000024,0.4048006407631317,-0.48583041598802984,0.2625535927366829,0.08821521582336074,0.7027654120925065,0.9769702544800686,-0.4468308252146252,-0.11052479756283815,-0.37586465134066266,-0.6137228144246016,0.5895614239961103,-0.16457006769560845,0.6355475122865293,0.3692240959523006,-0.12279427401715355,-0.9504563648000869,0.4971414922080772,-0.40767628855481985,-0.7640278026995818,-0.2403843215303458,-0.6758825937342355,0.7507018485417811,-0.3708055847063767,-0.9715776375326028,-0.2450783840653159],[0.853397809505962,0.9484579271681142,-0.9624814907828476,-0.1108563019012152,-0.5434898201695562,-0.8809346933426083,-0.7776288494309851,0.9206194585931939,0.21251183703859033,-0.7614636105739832,-0.1757863131450883,-0.7358450171923792,0.0803093239939475,0.9077911188561538,-0.7315262234239954,0.04957144618500001,0.48371921839962506,0.44074141295308955,0.4924458107314853,0.3438080181540695,0.06591869509176962,-0.15712622630930384,-0.32475406970810194,0.5812057542251305,0.8976564119278765,0.3608144021799,-0.5506609846434685,-0.40669522648137746,-0.7098654813271568,0.9712009333846983,-0.8610682026062297,0.14636638968909255,0.9191055207073439,0.40616783622114777,0.4460050537969462,-0.5282458164005001,-0.6204706669581773,0.7982519656514308,-0.563403200117148,-0.10303891708520876,-0.27433486641539323,0.6654989847854818,-0.7147280521299985,0.6431812317186997,0.9702211514016564,0.8840778078688378,-0.15952424515561872,-0.8524378389704208,-0.49187090817249357,0.7606280849243189,-0.1297083227475843,-0.8695573267867233,-0.3017471662254805,-0.44597135357664164,0.11235118645198994,0.7209333575726995,-0.008662960179327106,0.8714570693941182,0.47094330457661,-0.3970371800901715,-0.2255834197977749,0.009019613044618782,-0.8041146232681952,-0.7307604405516427,0.5560095580691293,-0.40461039597165166,-0.9474953055584968,-0.7966667753160571,0.26826949414533513,0.053895233122159096,-0.13095617265392842,0.6116112079924328,0.6586412781590101,-0.4563773548509082,1.005353863394659,-0.8641257774463295,-0.022987487956846017,-0.8762470587341655,-0.7535211168572524,-0.23820542213276522,-0.906326040000532,-0.9162691535953805,0.9011869401963848,0.13995199358083443,-0.4873827437579916,-0.8075518055890296,-0.5945974023087613,-0.16340548734002555,-0.5681366003840157,0.10364647228055393,0.4642145520727115,0.2868778895183823,-0.15708786823890725,0.46358159922140385,-0.6769774954379144,-0.3396069555774784,0.7864833386426549,-0.7372522179805593,-1.1333512231479945,-0.1436970594711004,-0.5666396258930108,-0.17018266067819546,0.9553343330693626,-0.38283421485120706,-0.5789531403897624,-0.3522060469442584,-0.16756464290659048,-1.0086431734582006,-0.9967787801360761,-0.24204574969664802,-0.09618945320939343,-0.1875698907488348,-0.9275469697805079,-0.6473348900717549,0.6002188824472472,0.7004066504423864,-0.028751227165331558,-0.08665472243808563,0.5511057773063865,-0.20322308282378293,-0.15936370866573943,0.13712068023967441,0.10104967847622078,0.6263231091851902,-0.01717621724577742,0.12591351396836703,-1.2503130884270035,-1.0154778228931778,0.8114071349037035,0.8666954779896775,0.5438115326057101,1.004668274146482,-0.5001565848289269,-0.013943560876437937,0.46323579900525014,0.10384326386402833,0.6060816190366787,-0.29867093593997873,-0.2687005728376186,-0.425409505969199,-0.4990876727403333,0.473317976689265,0.555380045007181,0.5601576180400635,0.29624697330692396,-0.7652149975954542,-0.563126268242161,-0.04994243564609645,-0.15632562398163427,0.05651820655098847,-0.16303453896843637,0.0011341457956856845,0.09817076133358442,-1.0716360324635354,-1.0422875241212979,-0.9643490028736545,-1.141537603608118,0.4756681948096304,0.5738384776900077,-0.743022865264203,-0.7385392550373293,-0.44634746169652795,-0.8117261236924976,-0.4830257943535039,-0.4231358234044996,0.7257962262148081,-0.9640056103783857,0.3087629544950383,0.7556428489754166,0.9985743320229129,-0.8743533695728797,0.5303553941492605,-0.2873139617099667,-0.3629535967910873,0.7431033411187219,0.5308165397754918,-0.7562657557905502,-0.18075806974569464,-0.4892002485295966,-0.25631459372087795,-0.2787259362608265,-1.565147093553671,-1.1647574529657916,-1.2599673650446503,0.020510203863883438,0.2797937585472429,-1.018207531140702,0.27215752678190375,0.7002419693799063,-0.5221636865283893,-0.04576995849534245,-0.24641141696151533,0.1297080719001672,0.6052856257355177,0.7783394147965902,-0.18459950927837473,-0.996963965667622,-0.48945680916745815,0.5010134742770821,0.945449678216656,-0.8294689363215709,0.9273621635521689,-0.9477618403255385,0.7131910311105275,-0.06696799236133606,0.16678235954898574,0.034717602602098524,-0.7842529031713559,-0.49009991666171804,-0.4182240536929828,-0.9707688868095551,0.07685806014060526,-0.2092455591655189,-0.06967736417380581,0.6805411981846925,-0.9639781372950507,0.6986669847903747,0.2029768140302104,-0.15033434000773352,0.04475999448139369,0.8919866828339829,-0.5871136650771551,-0.3642698514128189,-0.6107308036396869,0.9359226377912152,-0.8509766193933226,-0.21608728524074244,-0.6049348194404599,-0.957740250244462,0.060400209530211905,-0.29509813039573,-0.2547398784432816,-0.29440335121856415,0.0005060413861854986,-0.9236596242821067,-0.6469812189676795,-1.4051703340640638,-0.7286812694225935,0.2546773755797381,0.04476496081328765,0.07921204559077431,0.5989988617035429,0.22676951898624562,0.30334296605699945,0.16430724624008228,0.5228797991225724,0.024641838534184543,-0.09665185802772375,-0.419949573674832,0.15533015505050227,0.471916832882939,-0.7135571521771916,0.2832510054556519,0.5002679764626002,-0.5621800167765538,-0.14371627956764071,-0.9401916934640248,-0.8287558695647148,-0.11504244182859363,-0.4557176921914985,0.700801173158428,-1.018339220922589,-0.7931877227657439,-0.16488870540696426,-1.0004597894765124,-0.7560758692773676,-0.40165823001672624,0.16365697595489107,0.610336416778598,0.08234366255703303,-0.3581356398985312,0.19083948177076715,0.2971089576700891,0.5486947997805426,-0.309669747286916,0.5873080267199685,-0.6182515271851619,0.45994575394825693,-0.9080992909798056,0.12403933014826939,0.12254107689426556,0.058042457342348426,0.3423649873334454,0.2896288603403759,0.970591144533577,-0.5905453414722686,-0.9123564899842773,-0.6291816263901789,-1.183695422724935,-0.3360319271466239,-0.5606106959729237,-0.6729634830206576,-0.8380642922221025,0.4835686710750348,0.14177966343280815,-0.09552668932776238,-0.4260943654373086,0.5203640937467197,-0.10024678965226487,0.1825627002885741,0.152101621687549,0.477302300547471,-0.23437226159798807,-0.07666909219435034,0.4810116869095672,-0.25334230318838824,-0.13958109956179454,0.9239052442289735,0.5435130561579319,0.20369146118581768,-0.22814057477854535,0.6200878806748331,0.08909825976056279,0.17844661956711425,-0.7018763444682108,-0.9697642494123374,-1.2383881233575067,-0.6920653985919663,-1.027607521541509,-0.5567905464649154,0.10331417213943764,-0.7261756394299475,0.9399035074638602,0.988179179255439,1.295546612117946,-0.6297843646049478,0.11813511502063785,-0.3680395115666627,0.5917123617434753,0.5682945148100443,0.9663728837411232,-0.6499514455382808,-0.41008040479814367,1.1490889620123266,0.8038805593635027,-0.7906353269078539,-0.7633861999873822,0.8856119155170447,-0.18410480123211123,-0.8860207874658013,0.4155327810916586,-0.1377481208627022,-0.6679605289168966,-1.0835048566808518,-0.32360989520171823,0.40196533941957824,0.47009223729152166,0.009974877769991678,0.7102738070096032,-0.33371981948447615,0.17492638321856507,0.9708084384960391,0.5834169989617833,-0.2118568358982604,0.633998612187283,-0.6125165144173468,0.48565995596939454,0.020612049648009768,-0.7517233542534854,-0.17009272941182263,-0.010961460372646899,0.7544111509367195,-0.6383307520540628,-0.6950832890349663,0.2532500102275338,0.743636365405858,0.24913417408957136,0.7676034802014541,0.9085849241486482,0.17308927093487472,0.6459010341178352,-0.32574023391306095,-0.44896985698008957,-0.892972995569274,-0.04151680377395555,-1.0910118774107818,-0.7162804564112136,0.14850716632662594,0.9981602793199502,0.22443519399858683,0.25647482663687043,0.1265606543997081,-0.48672186576895116,-1.315072873466584,-0.5396556275035913,0.8272864626032194,0.3893731430270611,-1.0614693011496892,-0.12334641148799937,-0.9719206843351608,-0.5103416555714813,-0.370987535255587,-0.7099966096478625,0.00009852851367594838,-0.746740795782104,-0.01734704253256982,0.13029818987083808,-0.6989678989603187,-0.5744297454158317,0.8550342801409433,0.5466914841671716,0.575465704517466,-0.5201617701804672,-1.1059787620102335,0.5361083176189317,-0.2626547543613582,1.0349154376733822,-0.26955573436152774,0.3649344858226382,0.14888583282144927,0.5290886337648912,-0.15232019394832177,-1.3067605623775205,-0.10178492555779921,-0.0442287045958089,-0.47416385070294553,0.8265962303301785,0.6126605211671677,0.96432341032564,-0.6475395116742971,-0.3568828758318048,0.9992746520588424,-0.7522400216062048,0.8536617123298589,-0.6130879393184534,0.667153688492206,-0.38552539918277307,-0.5418100924414643,-0.7285428252623953,0.7500330702114164,0.856512969622849,0.8358150589491021,-0.1663380913535474,-0.42235973563613866,-0.6460463073217556,-0.8480068571052171,-0.698198454362744,0.11117025674171527,-1.0936974877166457,0.6079463169558021,-0.818579389251479,0.2522554987901081,-0.9344732741739447,-1.0648011668650403,-0.866268846952743,0.36068320459959874,0.8290461039491176,0.3568700352775359,0.14547756706147236,-0.1756262643447675,0.5030068505414668,-0.14885686210731597,0.04464007504473783,0.295406478345743,0.22779362761808075,0.3111777010774267,0.819348705061524,0.2230603627502661,0.45550582217545577,-0.035777241691355016,-0.5744751607424239,0.09011287375002586,-0.42857619102964883,1.2034642008369776,-0.31657388087574384,-0.23424369288295654,-0.13452965244074352,0.18472223857237616,-0.8943145435149824,-0.10040558057931552,0.41540659480330505,-0.6935580217478815,-0.9120098826121644,-0.0845789307678313,0.6630665205054498,-0.0031223600812908562,-0.1314819204250468,-0.8420103772410876,0.26837086763039564,-0.6246716103776483,0.5871312015824636,-0.729848373704997,0.7368176343537832,-0.10653056209189028,-0.07634977693645746,-0.47941625425939277,0.37179204089827816,-0.8780452634302457,-0.9133869324818633,-0.6015621834529596,-0.06727236677651077,0.9456489550145231,-0.19257487295277237,-0.7911878035481898,-0.3314458356065762,-0.6702771530500263,-0.36103752454049826,0.03643623443110892,-0.8451666828982396,-0.8175630204441487,-0.3031455682948595,-0.01952725086724832,-0.4604247960725466,0.21655531407076742,-0.03447528110230831,0.7020791063867472,-0.9334841191720787,-0.9015865079162665,0.29228836439413935,-0.20721488614092906,0.21524688791837476,1.153706742943789,-0.6061633245146749,0.0926957329627446,-0.39312848539616363,-0.3971205254817359,-0.21432751759107735,0.2311798013276029,-0.09046528861207158,0.11760340676745513,0.5269805960890833,0.05733480802671273,0.3135262861174097,-0.35847788101901834,-0.5339022013549457,0.18920244842413583,0.7962953274175666,-1.0037567810686538,-0.6679766861391196,0.6732424030385399,-0.38833173677262434,0.007822934905533471,0.9242357827660092,0.4077318114676999,0.1354041756625818,-0.08484327034581338,-0.05446999204826719,0.09147412977487195,0.6748097174206402,-0.25515943512285527,0.16408458748045673,0.374121011655966,-0.27153561040321766,0.775882969819989,-0.24908560620793124,0.7624446589886263,0.8896927941151601,-0.9085199100547006,-0.22656480493644915,-0.4995153356317911,0.5495840872953283,0.3594488305356514,0.28476481098975476,0.6500428955398123,0.6023745371213628,-0.9601924204961726,0.806448087822449,0.4232687113834327,-0.8891391883799489,0.281422040017028,0.2190874078539835,0.47941541965883866,0.21524906975029748,-0.6202182956666422,0.0034477983127071715,-1.1522431268121998,-0.9344786840293134,0.7723068958142002,-0.193665224601386,0.37107371915785314,1.2039730563668398,0.7703035804031028,-0.8392821525715908,0.17310747017868813,0.6549146339439174,-0.8991863654587102,-0.9088316405964882,-0.5295431554933947,-1.327764209997876,0.33218473664139325,-0.5236280001882854,-0.386772906049364,0.5053362929668109,0.6955676621442803,0.9622746305953203,-0.6269226023320047,-0.38637811464109395,-0.8766776724730058,-0.6875718216058195,-0.5227010981507938,0.41662508319853725,-0.45511573286970086,0.2508979968950802,-0.05186085403757699,-0.8744831588811344,-0.8435651200543055,-0.3752065746066069,-0.88956456289733,-0.22867302980307938,-0.1860279252529113,0.4436534421053989,0.21677792119836006,0.47322946486895784,0.33167361285235664,0.32154164490618364,0.07932624720582457,-0.019138841744897814,-0.44334439864619396,0.0591520005991022,-1.0089882194515236,-0.012870736756570144,0.008608792501693207,0.15280856660429137,-0.9164399555441585,-0.21776842351792522,0.9554099958065593,-0.19987028515628927,-0.05022205108743651,-0.3494362488723545,0.06564132127757176,-0.8132588197279067,-0.48157931459936437,-0.12825535651618905,-1.0715227611964255,0.29386203604543576,-0.6648687011121089,0.4780000580482626,-0.46879610195742166,-0.30633213181530483,-0.9537250163080895,-0.34053636068192084,-1.4350081584789869,-0.9060602450575298,-0.010521233663599411,-0.3616227212117781,0.3651407698824401,-0.19232457887210969,-0.050406433252433804,-0.014653316138867964,0.08392278328900259,0.2912616552491487,-0.18143872533673197,0.5291285714836403,0.8558354009296484,0.11240268484056926,0.10611368503815588,0.5289749396827453,0.36689730869799364,-0.9451797646264173,0.5217265829447864,-0.43350182135880355,0.8495500968357327,0.6873778009610352,-0.33254991694675523,0.4840949536684588,-0.11965443471848045,-0.22104040371291647,-0.5467510651373796,-0.19322458825930441,-0.1142277358606208,0.465615976750664,-0.7635938764064398,0.2941073036565678,-0.09494707004523849,-1.061984966854168,0.3420497596380127,0.12090187958969903,0.644619717722559,-0.9377516790360203,0.8625233856890936,0.5521357034064038,0.7367233373063591,-0.6127051402722896,0.35390312136042623,0.5137839633931224,-0.187328550858674,0.8191853099202292,-0.41413866198583255,-1.004713359714891,0.6840723231537894,0.59201440532931,-0.11307247777984016,0.03460869453233643,-0.26621341529085624,-0.9828287515737247,0.13845372844011544,-0.9284248498635329,0.6515409586249281,0.4355987714033354,-0.5721975102713307,0.3357266497858374,-0.19782404220879612,-1.0383396187012612,-0.3524647517291476,0.2934503545476346,-0.5679192030671475,-0.2609700502105276,0.8215705896928436,0.2582299042911595,-0.4471353064994803,0.7885870499625052,0.11595703733012996,0.9667385622665423,-0.1835554534863649,0.7168436928668508,-0.5834822287865796,-0.9804309406087285,-0.42922635558545,-0.6993877871856923,-0.9847198835038509,0.056885413207307,-0.177787921343799,0.6622451952212247,-0.43199769729028087,-0.5439003216750494,-1.0166393702582213,0.07162628853144748,-0.9923629700626555,-0.9227743221744783,0.04905960470266613,0.005323565507799498,-0.10600494200002929,0.9348614548528197,0.9868921327303811,0.0039727053170144555,0.660611267836564,0.5642905269800786,-0.3171714157183467,0.7010642051215838,-0.7235431028139618,-0.6153797035276187,0.4081008875264684,0.27614582719634545,-0.8492963361901281,0.1713801006729317,-0.08055571640690053,0.30452132919713704,0.20707197659161386,-0.24793809228994682,0.6564644532477878,-0.3748115753274541,0.5389163137365388,0.08595179652420402,-0.09346537136485213,0.7907980603134226,-0.38996947618518846,-0.4364369761276709,0.9171881875560725,-0.11982327473015707,0.8511692077095486,0.5465798247413083,0.5708704868478494,-0.594025536461733,-0.6653753681968924,0.08153464968405078,0.2797668827402249,0.5843781286380374,-0.6224483533175691,-0.35445196239055066,-0.6114088459374796,0.3287134708745258,-0.9479790092954224,-0.7846913561113209,0.8945764463640397,0.24321558077764818,-0.9812110889612273,0.45970349586749715,0.7503869176550987,0.06993762336649,0.9417836326713978,0.020956477443660835,-0.9187965586852035,-0.27020319875338034,-0.5577816075568554,0.24389566006682473,0.6585553720024803,0.10368773934397832,0.25120102295737484,0.6900796464859495,-0.4910473946234662,-0.6923336188392166,-0.14163284190208425,-0.5119093719182872,0.5026925964845594],[0.620367415027623,0.8812045884388158,0.2168457926927827,-0.8445686934780228,-0.5602763997505944,-0.37817940285038576,-0.13812237910100578,-0.5335415668817962,0.6490611162721511,-0.33540135702846663,0.3107550857160595,0.8187460416243963,-0.16246147070506095,-0.8263912455371133,0.45142676543288457,-0.42423616013645,0.26642211313496955,-0.239949034819962,-0.151904852445647,-0.6913508492394205,-0.0718329033929399,0.9207324727028743,0.9387578769009319,-0.4610818369319045,0.2813952820569454,0.411172016564574,-0.8153838684217944,0.8543033104764199,-0.5580567290188803,0.4367478875487285,0.5144814545643894,-0.6790145952220858,0.8847664163942455,0.48017010128152315,0.3171994042906388,-0.9806420723471228,-0.857110380603974,0.9263548041831122,0.8270347000097864,0.5934276060063454,-0.3721353508068109,-0.7430309280222528,-0.4502418441397166,0.13379250061337217,-0.3063224177733434,-0.27312008021818607,0.42762421842788373,0.4045475410021073,-0.6971992925018663,0.20214973054286828,0.8111050771170673,0.3785414096930114,0.41595016920959904,0.2916038877273466,0.7093662473337581,-0.45633016908122426,0.06206824650066345,0.8095876637398418,-0.2745115152133165,-0.3806740452224448,0.9537654783709657,0.7158626062165904,0.49456117460667154,0.9479057065337868,-0.42228688034792705,0.6564107936363145,0.3043190811645302,-1.1261362156278913,0.121519753193266,0.5425481129749671,0.41683573118862405,0.08162637295472537,-0.02136506510419818,-0.12670509816314757,0.34855282941672566,-0.9429647211945967,-0.1675279254073669,0.1772513746087432,0.6060775145399808,-0.4338305939675023,0.8854759862491167,0.12739555856527957,0.008323926881470989,-0.8327188097993719,-0.2742870523144223,-0.46774815646941703,0.09368887001525128,0.47635865590077614,0.23260440419983258,-0.054339171890563934,0.7200587983055898,0.765207303595865,0.12003754827112274,-0.9501484919131447,0.09259135094638839,0.07059827258947315,-0.1893286510444632,-0.18901886850249036,0.055322597279049326,-0.8836247441762347,0.1706008977572881,-0.0939635658069859,0.15943444707564208,-0.48144150552305853,-0.5239196070071932,0.6168798200708122,-0.3723463576494198,-0.75426531316536,-0.3198745115367826,0.4568896013638499,-0.2703300909650545,0.8625945732598548,-0.013353131282967112,0.4507844495452322,-0.7675297728290681,-0.02426942329750614,0.992527339686336,0.766313332286185,0.2464933933948455,0.8888832829103773,0.38684075123331213,0.07030843152385967,0.2279324869451989,-0.22809139253493907,-1.1909015350476129,-0.0991191607878426,-0.7466571190286075,-1.2064991084263077,-1.282447062661018,-0.03521895126111227,0.49542252254327707,-0.0006393752179189175,-0.7793980819175516,-0.10537260916005664,-0.4345706727927467,-0.16785726072284007,-0.4358743041765415,0.23019964732406237,0.5900495189373702,0.503000979305632,-0.9190106386118018,0.26417094916034944,-0.3890403124499889,-0.6650524066537516,0.8886624963705716,0.9487871498104536,-0.34698646771285824,-0.7376090827535965,0.8614689715585463,0.5397740244649627,0.772212939265434,0.42504575191081917,-0.3424913700025305,-1.0228014100516725,-0.5338352117046502,-1.2268785206821062,0.07740284009418236,-0.4503754720070327,0.038077701818052145,0.4884763102938105,-1.2518999984356878,-0.8503908001610244,-0.7842423131564737,-0.6381188732151709,0.8401743989550371,-1.0041333343053127,0.21032752362898222,0.5980094295042462,-0.6536964565982353,0.2525308920509167,0.7470774354196111,-0.8539711752638497,0.3213732262927425,-0.22064751375028643,0.9397066586340967,1.0031538842758694,0.5856152434481949,0.9262353096152907,1.2170063063402328,0.3002205753082669,-0.058567069408584936,0.594251112738801,0.5834049376095811,0.8818798193990044,0.10707258246621836,-0.15437692467480568,-0.5091186125654513,0.0028071968260810634,-0.18123445598250834,0.4445737836131798,-0.11175006910771101,0.6829427684086024,-0.018919563473949897,-0.4468918727129011,0.45389859855097353,-0.11474521229503894,0.6921304910658207,-0.15479365473367185,0.06400243710113239,0.6842869296035075,-0.4257007814458278,0.6836376930326912,0.5424379243936668,1.1715674346489622,0.720630596183518,-0.13044314549245845,1.1640679736368007,1.1720298570133505,1.0181295188305262,0.37539876793513605,0.09654595932143493,1.0344539985970005,1.0995097724133116,1.2140803393530968,-0.11566517667179026,-0.14736651192672556,0.8670258912758135,-0.23707570377439352,0.6425653067419694,-0.2556591384012688,-0.4845145330990798,-0.4749232598447366,0.47530290490234794,0.15097782418360275,-0.2574902830224701,-0.6056268171274892,-0.14677521496059295,-0.7693972059034219,-0.07261577032481403,-0.5118630291629367,-0.38673351323153066,-0.27277667670241734,-0.3794025596623967,-0.46609274209254165,0.9704131651920404,0.14982778293032648,-0.11691076548683044,0.6809410260298987,0.5391188281694002,-0.007101292813579263,0.6766966979694997,0.1083690431815077,1.1981967761128285,1.1410317264601046,0.49777600220857543,0.5103376259732126,0.15002906073026526,0.18223252375032026,1.0006094256563545,-0.2627291499816707,0.6831005393728847,0.6429505224403548,0.38426106758601547,-0.4405456847441158,-0.7810019174569466,1.0099223056081048,-0.8130545626168841,-0.5662988529847705,0.5129511858592238,0.26657404487965874,0.28042004928949454,-0.6794069474574086,0.05759662612234494,-0.09427751264909594,0.5160410204394486,1.0883456650511898,0.14974192367025715,0.606277061994339,-0.12863581782610645,1.0278396708746231,0.8731755102963127,-0.039631632510267314,0.18859902781230697,0.4271039744103859,-0.27899324318299973,-0.239979394971143,0.2749066586656053,0.6268073417762988,-0.4171831004762889,0.49092695049046786,0.6185919568422006,-0.8359534984445,0.9526633355134808,-0.7491716387587245,0.9387980058763586,-0.582308321950228,0.35016063514296275,0.9120153301928651,-0.3409050367737681,-0.13187608262767847,-0.9930970161751758,-0.2889831637098924,0.713463301419599,-0.34090133009464685,-0.11269309639237136,-0.35680366108299977,0.19844501234576845,0.6305408390355741,-0.27767213051864037,1.2362318916744477,1.477841940285181,0.4810616803655496,-0.21023255849469927,-0.9228505934296382,-0.34628664021948663,0.452141290466326,0.6087198416676343,-0.5521966122699848,-0.8926192798058582,-0.9681485826548403,0.946710674730686,-0.5604732155020677,-0.29611682140440637,0.45091800599383425,0.07216770638523057,-0.6895517401202331,0.4420575923220652,0.69828826652937,0.01701774268038311,0.4779505990904238,-0.09488819427632157,-0.5408201323475841,-1.1975403080938563,0.17538028916775086,1.5793878176821126,0.8323685819413505,1.220957632829104,0.6445962574887266,-0.15357545159047178,1.1777775500526058,-0.22938380970863553,-0.5746915486225712,0.01654896639828509,0.3686415078137857,-0.35149341605502327,-0.7495460335409566,-0.5844978388750989,0.7868128099850011,-0.3432337584622937,0.010957723448410239,0.23104916005911727,-0.39445793101570326,-0.4009523013435034,0.39297174531877227,-0.09030326196346779,0.7028112547295944,1.4160789817939743,0.8927817620060483,-0.3838104055169366,-0.9246610296797694,-0.30099348422778527,1.0282867708690928,1.4292284762152798,0.16932317901615085,0.6948367939941248,1.3267639067096322,-0.3589509996448661,-0.5191784597930955,-0.1544666687956151,-0.20694325347140738,-0.5254252170518655,0.6207683583317103,0.0914633983095202,-0.29588968467086835,0.832103829515657,0.43780643101336997,0.852899037949634,-0.17483809352627103,-0.21296185021652553,-0.1465426290566849,0.1715362904661452,0.34524206041772715,1.7023605119476846,1.4525034912695403,0.9566822695829875,0.6237891634460317,-1.0032656196725898,-0.41758368021485504,-0.31868381872323187,-0.46771635765799036,1.036962284650416,0.14706455210915725,0.4624691125331774,0.656620178907868,0.6039652446487994,-0.17245317459509435,0.08438569115343522,-1.0388216654931732,-1.1845464291618153,0.5038136466015537,0.9012379220870922,-0.7070143072596832,-0.48025200801396795,-0.03285345394915688,0.8078246921913297,-0.45771111546175014,0.0067397543988483395,0.9935802523128588,0.7151629606389734,1.298295146981006,0.9786585893218905,0.04159394252216428,-0.44309495853949205,-1.0515770824551387,0.5812513905693616,-1.3044789116340898,-0.04424617684524584,-0.7856028667030426,-0.2856185009764835,1.0012654056386705,0.892743524631896,0.5979559105767676,-0.10793119094650383,-0.0313442700968444,-0.22248823173576288,-0.015959641115044557,-0.39449863896825704,0.4951724507655015,-1.0097588336729175,-0.8619493109053239,0.1016677623529117,0.4731613999140658,0.07957936404545686,0.5574235990860816,1.0352983105648794,0.8165408093376184,-0.2670199227262428,-0.04137445874020989,0.7474466307464693,1.0050086267068736,0.1570109846099647,-0.5602264838961019,-0.14603255280156488,-0.8052864980641028,-1.1640611262629665,0.2836094785097272,1.0089027890659268,0.3770640468699122,1.3366781395819314,0.07190010578804917,0.6859855055722646,-0.005299000786940271,0.5387915452850401,-0.4735619605210077,-0.14011967915779044,0.5509096699104928,-0.6026474469691369,0.02049041087478754,0.8274902724753898,0.9610431124825912,-0.14860556565584432,0.33190985416013546,0.5144369103074099,-0.4663106858957472,-0.5772870982807049,0.5278569481161695,0.012040798781449254,-0.15280881263741733,-0.8259219057204205,-0.8365934074798975,0.5309948351114333,0.42695875018747875,0.2768979122076373,-0.8955413027987472,0.2092445041639927,-0.2595940748393388,1.42260575684129,-0.07237832314845652,-0.40980630523232436,0.7664792306936328,-0.26340405719600213,-0.5447502428819219,-0.5868801576421389,-1.2512363641921103,0.4970044015119341,0.22702979657238948,-0.92278194068967,0.5365281923674066,0.9953998224301853,-0.43800764767482236,-0.8830458289140619,0.29509305310405837,-0.8295298081642225,-0.12108977101782756,0.8824364527365807,0.4567284162864185,-1.1948907609148,-0.7710813709663402,-0.32505495470087237,-0.4415422268483711,-0.9128000753603696,0.18526127400921322,0.4062999219244612,0.2774786425924199,0.3320737870137207,0.17985338895676645,-0.002856493905297651,0.8068203684380638,-0.9990825087101421,-0.9732791866606982,0.2358415431357085,0.23467302929533296,0.548788391560161,0.13332776146938277,0.22098826950385175,-0.7933441427330518,-0.38223391388108025,-0.752515790421151,-0.8860655930595204,-0.5755252228740793,-0.8150302683084897,0.4463219427925188,-1.3223307277667342,-0.6442034937845291,-0.7488958368424389,-0.4098428989602051,0.4643472932815259,-0.0649710166099712,0.2836694135361447,-0.4973546417840278,-0.7553281312709653,-0.8487980031304646,-0.2972616298472709,-0.5818804307215504,-0.9207530370781124,-0.737032161731583,-0.5661010145892645,-1.1756594644346767,0.19033417233666086,-0.18632185738061738,0.15302225301456227,-0.5989702625832041,0.0014828104596914728,0.9802292598915172,0.2968193616740584,-0.34396161734265535,0.8065432152630837,0.19269103340718383,-0.619169416218459,0.12795312365179323,-0.7931651049386047,-0.5709908337562575,-1.216413727910898,-0.6488192563449828,-1.0232869673800506,-0.881261721359807,-0.906428220447715,-0.4546030133729094,-0.8123971076129688,-0.34508546270923873,-1.2523107771720126,0.5618011598779465,-1.1551185457708577,-0.37415845665170555,0.03524991629400975,-0.6686370935470782,-0.09411687746386871,0.9015352206365952,0.5193083563845478,-0.048783877125919826,0.5109471086080859,-0.21538584967777452,-0.31148503451664916,1.0771467734496016,0.5936619114918165,0.4917322413144943,0.018138262205236257,-0.8559176615948068,-0.24776531306155017,-1.719101363561148,-0.802884637350676,-1.0086051403833856,-1.148271557511565,-0.8081118138008228,0.0843112462910723,-0.16116076012366165,-0.8927225327629901,-0.5981865274463715,-0.03874753306399672,-0.44591244701384686,0.5258223080764687,-0.1242068797705937,-0.2458147166487807,0.5227975600722998,-0.967959024372785,-0.3319615162066392,0.6874008268801114,-0.875381841643207,0.12997175618045664,-0.18780554764224078,0.38309290556087666,0.7040853774737753,-0.2803970878217841,0.7906885226378281,-0.4546427782129542,-0.3197293215344228,-1.1601113002743428,-0.6587250293314199,-1.6892828406450289,-0.3139350594194779,-0.776445815460764,-1.5837288607892235,-1.1786445772995204,-0.878123285841311,-0.5300084143552956,0.19633455676364506,0.47803822378804856,-0.23779460334457936,-0.9478996377461872,0.3934583885087934,-0.9435230269072342,-0.8720844608757788,-0.8615071204483605,-0.9842822735674214,-0.7333870271004657,-0.1138270367675629,0.1001279199556354,-0.5210178396573969,-0.36042974438651226,0.43976318665460423,-0.5984715631445646,-0.5222859318691562,-0.13449846398002582,-0.8033536202979117,-0.410013329211323,-0.33494203762784625,-1.053774942129005,-1.0399910159506565,-0.8889570980915044,-0.6536479404667894,0.0828743345910053,0.4460183233864662,0.9486724718511667,0.9236273533787883,-0.7170287840863022,-0.4843766726108775,0.8282294327708213,-0.18733643085980714,1.0729897398317427,0.6318184396526287,-0.789821262350966,-0.007114028621127056,0.010540520500247227,0.38148525311451514,0.13567379750875252,0.5068034092501572,-0.2691818577007378,-0.8928919655120311,0.7180455230102656,0.8585175764236381,0.7700740698985737,-0.04043654383614191,0.0958487384561617,0.4525092017397453,-0.04650000173066691,-0.7701242590647299,0.497174242450641,0.32868797360758223,0.556844529565011,0.10867637425999681,-0.7024272030601835,-0.2133933872670511,0.8940652804051955,-0.32376548383164433,0.7691884003562838,0.6259153471525362,0.5428495524923442,0.6530548084799481,0.5838929934057964,0.745232415342205,0.8929063954932892,-0.10759520697499214,-0.8616246700158652,-0.34099180001663987,-0.7182470917888961,-0.18892124700281623,-0.015833519977565484,0.279721790724552,0.94209067471423,0.20172533084520966,0.08458107086778266,0.9981984863353252,-0.4527810063411826,0.6109441927849548,0.6496827826957116,1.1267597042426445,1.0247591360902362,1.31425256672525,1.401156747111633,0.2137860304302205,1.1869292964614722,-0.3488870066919446,0.7756843595144634,0.6298476718848317,0.5237069208939101,0.6970998026281198,0.7564098487884157,-0.8729661935847475,-0.8038368269098075,0.880105970044901,0.3301342176321793,-0.1845872784569118,-0.8776831537080851,1.0056310405818984,0.777578629227136,0.384129565057236,1.0092985971151691,0.7753571293505883,1.09672376983076,0.30384701409478687,0.11677452810727552,0.941848985860628,0.0902851025340802,-0.2967294788571763,-0.29591539712457243,0.07497633866761005,-0.6666705878585003,-0.5709009052449505,-0.5258386388679643,0.2709029392232982,0.46814135789544037,-0.5953598887562545,0.6065621399889319,0.49916240776125687,-0.6232254810720788,-0.0020981769399366457,-0.778564214243373,0.5268053001917437,-0.03890920668983955,-0.7415322576431558,0.7405027629568337,-0.26958100516801026,-0.4541366842248209,0.1143313707706261,-0.6413714341759712,0.543191509829024,-0.3243421936859724,-0.3963652215966333,0.5393102408618918,0.8160352230608715,0.32367730031519826,0.1139485617434718,-0.5460199781086593,0.42852711986857445,-0.350560928188749,0.9264075387225303,-0.6143499731824626,1.046736317101165,0.8767507887433053,-0.6685504066540353,-0.43981720976500127,-0.04555409650916214,-0.6464894430787406,-0.20886355840664117,-0.03896022276665545,-0.7190546285798594,-0.18859081775410602,-0.6989759640920885,0.06823612164261506,-0.7883739132788881,-0.9488493531939897,-0.06439028608678124,-0.013680406492448286,-0.4287451475802803,0.07845425679515586,0.19294024386837816,-0.5405933077423061,-0.14395433270001404,0.18529457757155243,-0.19709142379624514,-0.9548298063232791,-0.22509981340639482,-0.5128855764793714,-0.26785843184363545,-0.170340119836505,-0.09951522121380876,0.23773554813728195,-0.18314123201378485,0.061859963624644215,0.552516359993743,0.428610202520157,-0.1487343617717729,-0.03628993183839002,0.7653493288136417],[0.9559531035504947,0.4212244646990524,0.45967995685602037,-0.581559549268742,-0.8333444022438392,0.5941347158741863,-0.6115404493629018,0.0208451856308709,0.15708476107770442,0.06762434511758264,0.7147187296455542,-0.6227506451497518,-0.568546220971293,0.18077063779641095,0.5265788014397073,0.40815816789498327,-0.4405797462007863,0.6545209139548509,0.7188634118688773,0.9850706790014747,0.8315124206650066,-0.16530588584469275,0.06453397726928456,-0.8796772882821442,0.953607077330878,0.0004785323402947128,-0.0882694811038669,0.7519087226460222,0.24470072016689426,0.7067102525592446,-0.4717343845966748,0.5697292386923534,-0.546498978849465,-0.36023018386522326,0.2609113147645882,-0.8745916029133077,-0.4329867363063111,0.4981682674504548,-0.8383400936561933,0.9353922624553641,0.010745571473613923,-0.4009138335082143,0.24025382188832115,-0.8731904708948842,0.10746722553602465,-0.37476407868291856,0.9813836298950628,-0.8888071611916264,-0.48132013485721353,0.3800811100997323,-0.9991664252865504,-0.26333393346292266,-0.29734117568453144,0.562286286221862,-0.42743621383722097,0.5829709997280457,0.15062263832566503,-0.6402258207371274,0.31458922405504686,-0.865058378432908,0.48587261811915144,0.47024813474690347,0.11035061800392718,-0.8922084307914736,0.18656358195541808,0.6913713853546158,-0.49823858087613854,-0.4126430269846835,0.28864584651990305,0.9007925703087646,-0.11167854603517065,-0.01821306444832923,-0.9320138347127012,0.25266725583294475,0.6996645972573314,-0.004147760104771904,-0.8317850636463399,-0.8588017953419373,-0.8853858836598392,0.727612588701344,0.35687742557738006,-0.6664436969517731,0.21833973644083082,0.330070804549808,-0.8546371096797984,0.6536359087257368,-0.8101509577898562,0.7487986749385599,-0.3255361373267343,-0.46200542099077363,0.017600756083932318,0.7954910877408923,0.5592454562518571,0.615362704766294,0.892311593434122,-0.12196772904199805,-0.30873710307613805,-0.5665735204908788,0.06011223418788418,0.035387221900696805,-0.6238164738725555,0.7998112432879645,-0.7199826924351496,0.00032076925199409025,-0.5836085320233869,-0.0023258204446243783,0.7188911532978667,-0.1069182570800017,0.4320453749263335,0.551872820211061,0.40563929873351645,0.346457780145073,0.7795609977220292,-0.45088376358091636,-0.7304817437233457,0.34855933095987524,-0.4778155222353317,-0.5345934023258571,0.32977123583498713,-0.7106256458972663,0.18382917598215492,-0.3845102243352442,-0.39366775008004445,0.45003298138943904,-0.5428258039334746,0.36494116015614847,-0.5752638632741642,-0.4912515120588791,-0.8069570877316008,0.2672528679278584,-0.7517083587359089,-0.536418129998391,0.6685049609319972,-0.6176970243744813,0.154871877598583,0.1437644491651528,0.8191313816082159,0.624032679303783,0.015055654632492133,0.20601825459894962,0.8876909988086812,0.2588866380418584,0.5377328197415482,-0.11225267784642694,-0.5694254617561222,-0.3750728770464569,0.900996477863735,0.8788348964257416,0.6128142961026107,-1.0330232042293228,-0.652519580575582,0.47063426466532815,0.7854939138062761,0.5981082917479791,0.5574796817693057,-0.35321345846756763,-0.3145039556826039,-0.32697456939202874,-0.3652903282544675,0.363688787088537,0.3224909852159274,-0.8426660035731409,-0.3061790887495209,0.9235890534516563,-0.5124038216544784,-0.19235247805309116,0.17433407780072988,-0.4367843551849983,0.24428443245573828,0.7952699197258719,-0.695528759266603,-0.4082084890734795,-0.23729635034233543,0.5385485167765676,-1.0659818375953853,0.39400094461723095,-0.13095370521218122,-1.1121876648471405,-0.8656134988398728,-0.4579353055472008,0.04784335157425503,0.46785790097631463,-0.10595375833001346,-0.4933766870522886,-0.03651036108735969,0.23759376099166354,1.2358873220127682,-0.33516436238988945,-0.12118827551733644,-0.37833886302061875,1.029636954004569,0.5476219830193642,0.15737251472614616,-0.26212450467512743,0.03364079156320092,0.36472752359789173,0.3989094439759723,0.794706266325815,-0.7144692782468612,0.40282815233820324,0.7940523093866704,0.3057941277821484,0.8305222742216002,-0.6295154548469621,0.5987618613565848,-0.6267359962739951,0.3753687869997416,0.28348757940650476,-1.0113548852529488,0.9249516524903498,0.10423327778288935,-0.005885516561385887,-0.039389402671159236,1.2844928526985995,-0.2533990435305064,0.9621910854712115,0.9558205699326504,0.4021302686829527,0.44576133716947847,0.5023491808992491,-0.1949830334265638,0.9323051102343761,-0.4584428218405691,-0.30261204210035403,-0.11973882712935636,0.8035824128089761,0.7279560134642392,0.6394038711640327,-0.7523937354701049,0.925067744495644,0.247728357324495,-0.025559781819622283,0.777742088407047,0.4858228622838506,-0.9718672635092566,-0.17715521258439912,1.0274849942926183,-0.5872490611344898,-0.3975386888636797,-0.7506112523114719,-0.6895247483820998,0.8708682487095477,0.37932227671839763,-0.2732280170120508,0.15557207926436106,-0.6079533507996652,0.8753525891563402,0.2290606997230618,-0.2693486801706509,-0.21630813454248873,0.8479517804723951,0.4767041997895877,-0.8987824766111724,-0.4125711143643171,-0.08588373558948087,-0.3001169310779159,-1.037777721012258,-0.9881625195131338,0.8201912400997645,0.6222228687295652,0.06273674939460351,0.5026624121009963,-0.19758211936619977,-0.7546270210526201,-0.507629753025712,0.482496890074082,-0.931795744721095,-1.0267013823994828,-0.5787386179802223,0.37189929393810467,0.4038866862606636,0.20468358666920247,0.4691642596541559,-0.019158964392919503,0.6843891068471862,1.0032662991665464,0.8722117900478116,0.27487030115696076,-0.07011857788271904,-0.8506958153927455,0.3942647714871384,-0.7762610662894804,0.6946841798131265,0.3669438794839561,0.5575612497292497,-0.060964195669782,0.23568940409653394,-0.9474235809713615,-0.6723265896375481,0.47020132950425714,0.20127608412396084,-0.6643509964757879,-0.6810195088481218,-0.5848965566430554,-0.38377403009916067,-1.1319585600194624,-0.9270128637621387,-1.0942713260080261,-1.130923699528134,0.04756882285957476,-1.0345748391980656,-1.038117434713076,0.05961778994973339,0.6003408010790597,0.9274173936614614,-0.0409653709623709,0.5594951596444391,-0.47350965703180986,0.9588200212780562,0.6643012126217362,-0.3101670704858672,0.008444330590209798,0.19105412009857117,0.0528243594633248,-0.5561432877843937,-0.6926060968505003,-0.4426411299206722,0.16731737337777078,0.11862750663118478,0.017907011055636808,-0.7346567710106572,-1.145875556302682,-0.2893813334144028,0.005666612728863249,0.2400592987036059,0.41668770297430446,0.21045020888142746,-0.3385233286297987,-0.16973960689004106,-0.91267067347026,-0.34195352422800607,0.09012776062556882,-0.3891969977638098,-0.3640471319662183,0.8272225354483537,0.7423512051237923,0.8033173785133644,0.12841006183677017,-0.23591197676724118,0.17305909580618822,-0.8882630832565196,0.1823408990679751,0.7606206463302645,0.7118509153309124,-0.9123906861160934,-0.4545590066068906,-1.3436478079398042,0.6886272648924541,-0.27218933069752865,0.5562414583640254,-0.6719794588437553,-0.21426181460931318,-0.28464266912001696,-0.3654935679457839,-0.08202879555381003,0.07423644709109768,-0.8108897720750216,0.07540129632721908,0.0611321279379889,-0.21806073031960646,-0.8205408688520873,0.4666071869636357,-0.6742492035228007,-0.2572094023265053,-0.7521735949432343,-0.8071427612541336,0.09935413718450385,-0.8763957541066809,-0.1513189556078848,0.3624108103226788,-0.4508091309794772,-1.0320944544391564,0.5034370443455747,-0.5472450445122583,0.15066953284709814,0.6776983877515416,0.026404823297693177,-0.14541410907034624,-0.8300960660058389,-1.0660803851997258,0.22790138271281396,-1.1108802512863563,-1.1677730524192418,0.5391581672755071,-0.7221028517748824,0.26068769889257587,-0.639098497839741,0.18425214636835757,-1.059252233926979,0.6153628903768184,0.3575023772411078,0.9759413837739629,-0.6334267432767029,0.2824826749776342,0.5719038836962522,0.33444326372597305,-0.9938758754121446,-0.6368973399319906,-0.6602209303498747,-0.36667154342917263,-0.9938777046941885,-0.013489483417362709,-0.9283666570472312,0.669587922323116,-0.26241051210476657,-0.13484595898501905,0.3149071828262117,-0.0674651168546861,-1.0724946412385135,-1.1908891809775837,0.1769305686972493,-0.8271673896529772,0.22148255910671666,-0.7945342752679116,-0.5286916170383594,-0.8454694490545367,-0.7410749745521937,-0.026642861971376386,0.1971416326922518,-0.1443834055698587,-0.8017017483407037,0.9888627437170574,0.7179217927291148,-0.37476605570998445,0.7535261803910247,-0.33460347056282547,0.228543611572197,0.25399848522320917,0.5223059812711879,-1.2574048698017144,0.06250066561056966,0.4362115659670001,-0.9275652244336208,0.5767126116264869,0.5325866242798327,0.3131685004908975,-0.3729046950496402,-0.3897295095963081,0.09531115518757019,-1.003491314044147,-0.7982699923115681,-0.4387419765402454,0.4953794746004753,0.006148808980618073,-0.6408709145748037,-0.3370074176749826,-0.7244386379700953,-0.9903766469949988,0.008619311230531232,0.7109501532075118,0.2051398282121819,-0.245370008623896,0.8832275980709342,-0.9206737629241587,-0.014263762364141515,0.14652875710166496,-0.5375838671101563,-0.5007859813462179,-0.6666498051997162,0.5364085005661344,0.9190606369451184,-0.7305284987654624,-0.5812677175619642,-0.36957237960924405,-0.43478169432730834,0.3417025233258676,0.09069356936062432,-1.055473915312423,-0.10345756437385253,-1.0993361964312267,-0.6781811357592473,-0.29918427585393675,0.7321735667125668,-0.9618426010015803,0.0025669131582960964,-0.0395744279746722,0.12525396234257813,-0.46926820416610415,0.18517278069425955,-1.078885569916828,-0.6604030685689851,0.1454311087173391,-0.4607669843919467,0.3895801211173895,0.1749353182048185,-0.021809571596645157,-0.451772268130299,-0.8828402091672657,0.6672884191197423,-0.31358821566045236,-0.1744113095223714,0.45183181441339887,-0.8657050458866341,-1.0227536986727859,0.8001843752705364,-0.07546383118188843,-1.0881437560147702,0.12840504789432777,-1.1931122431729222,0.59960923148474,-0.07044109682425542,-0.49194888031261363,-0.7588093564207643,-0.18231119311697863,-0.10198029158034404,-0.4112911691976754,-0.17519412569377601,0.2836853013023882,-0.4921480198030466,-0.9217984239330199,-0.2703431598423763,0.3135792334163842,-0.032694628834098974,0.7063650943882319,0.11358960149758741,0.6443989183327316,-0.9244822280626968,0.2640162405956476,0.6118697708237856,-0.47712865904623053,0.04607745787687705,-0.23822328832660908,-0.8043560072021818,-0.4215748350279317,-0.2331488311053605,-0.005921994880469984,-0.15296474857479042,-0.7325738486149078,-0.4076445732146627,-0.702783816358878,0.47383488842804256,0.5792426563834381,-0.49809615276296093,0.051590027022608946,0.8068206096340258,0.5942450667947123,-0.22604198771481146,0.7324331883692674,0.5142854736180325,-0.06602340153011849,-0.6565914503052257,-0.8555444896271738,0.21902672803003057,0.4565819561151025,-0.022167646744902802,-0.13933431084864006,0.4387925110093548,0.5804311416046118,-0.7092948784970661,0.25198362134064517,0.821705433892441,-0.08379374209332634,0.4590808144627092,0.03840425651903308,-0.17505795628867052,0.6043937422365859,-0.06414208693469234,0.8116378778828265,-0.6427796016177665,0.16347089760318684,0.39161095882535535,0.9830921524953288,-0.8293835235962974,0.14889665483187173,0.24419636491752933,0.6978760793158394,-0.43976192080639254,-0.5580666941688857,-0.7455918968974578,-1.6584014459541205,-0.5224876292744358,0.3440480389884904,0.5629247959979439,0.41075479399673837,0.18669754999806498,0.12337381796369853,-1.447432012994479,0.05426896523927565,-0.1012860843745715,-0.3108248270935206,-0.03579733555471669,-0.6098314113121234,1.2023834840725058,-0.33701226433681847,0.43755420497002084,-0.7191781646719358,-0.27623089080375807,-0.8230398841759407,0.8744228502090109,-0.6721846881184427,0.4470893516422596,-0.19165900116881152,-0.6696696937240163,-0.654103648407701,-0.5557453482416976,0.06254683557455094,0.25301423187282146,-0.5221157658999674,-0.9582209648033136,-0.34119427262820834,-0.22489227318993474,-1.0164319829890558,-0.418624879210352,-0.665867371655447,-0.9069310737538351,0.28391851565178644,0.6205961492503408,-1.1387332983494818,-0.5031050783451986,0.9832777376309995,-0.5039597848629579,0.43354640348709705,0.9869311759538509,0.4776315275317515,-0.08260058455325595,-0.9131850939629488,0.6708233973381883,0.2129704007569409,0.5133803095649268,0.06973102837951128,-0.0085034396409064,0.6854813210356845,-0.19914910767011176,0.07318715087308697,-0.3181687812378996,-0.09256849274503784,0.7163297606368628,0.38622626717214487,-0.09753169155893786,0.7722972681596686,-0.9971898772464267,-1.1069326752189395,0.3637513823304541,-0.012388291891612675,-1.0685786959691657,0.4714287358159221,-0.577550836173143,0.525963303693371,0.19086981439486492,-0.5494608910203744,0.12454276625434428,-0.9839640767479313,-0.5307301402465974,0.029852643862423065,-0.20554763035799795,0.8290648062698172,0.975206734543643,0.34359420572354954,-0.24486589652491064,-0.4422530946173677,0.6992381426674718,0.1084384656339692,0.6866381821470343,1.1023793036818093,-0.4291514357112408,0.4505632606205481,-0.529012603973315,0.7857811554252447,0.7436261233817351,-0.3563890393107157,-1.064042516159834,0.17750794906827314,0.43166380729376164,0.6333624705217518,0.4789863409490791,0.6763224109217678,0.9355442010641601,-0.5597563059277308,0.8696047610088714,0.5075312591072096,-0.22593472968639733,0.8267435521958086,-0.7936529765428233,-0.5841325702585438,0.829088141052185,-0.3842858958607174,-0.8632676555094717,-0.36005077701264804,0.6479768916643093,0.8347772116890273,0.7657545880007864,0.15330287724353925,-0.4090117231579454,1.0920457234707062,0.8703353537441196,0.9937070555292404,-0.4528137821281118,-0.6388553736263042,1.0309943151179177,-0.7426181505663623,0.18015627295012387,0.7647869952036739,-0.18813428760364864,-0.5434478205474917,-0.30473707297968766,0.2894712269779832,0.9215002558817784,-0.15807504723109553,0.6961959839286382,0.7327961243617545,-0.32619006819416163,0.26406223209733914,0.5290238318778335,-0.9770768652800821,0.03825067791244831,-0.48662200540413825,0.12651798470616823,0.024009443756801904,-0.7583896731734346,-0.2941342086427407,-0.45414229027762365,-0.7041563400913382,0.7317352206801526,0.21127218228294856,0.13441374539839449,0.463838691061697,0.2806188873223283,-0.9593773954710538,-0.6792191180291188,-0.7664796965519832,-0.7491235583374515,-0.2933704872611684,-0.16013910451505098,0.8240122798138955,0.6495512796042564,0.7493710236359121,0.868974558388889,-0.7591595229496135,0.7889182159680646,0.005381836620646174,0.7457260248199957,0.7712297025909848,-0.8175900564881515,-0.580053666746061,0.8396426508727017,-0.5355452718041006,-0.8555921190064539,-0.6331447842221545,0.9029455799731423,-0.03958622087557654,-0.3079764140823437,0.8004097710852118,-0.5574110183453749,-1.0178173682397083,0.9304695516312507,-0.01465042811733898,0.04070504167482597,0.022395976061732322,0.1930994703251004,-0.32764239287978647,0.910986464837176,0.7194728757132892,-0.5886095240873012,0.19003055939204275,-0.002914677018373224,0.6435383869446414,-0.8908848674553391,0.8906607559516129,0.6249913087719843,0.8422913184918013,-0.16926148843036012,-0.13269946996816234,0.39066605131350696,0.5151845404858255,0.8415246793307686,0.5522683552194402,-0.6210716933643553,-0.17333396148487595,0.6450614146947552,-0.10114214115949301,0.017951637917766685,0.8551639359579699,0.8786997906520135,0.8014162121622118,0.8551668002561491,0.7729414617931402,0.5855199669614982,0.9718309751975522,0.9482043542373618,0.021499351059343703,0.7447709377662288,0.06744171724505676,0.38908421136262694,-0.5627364104009276],[0.7090353160416021,-0.30958206497348595,-0.29584725791944577,-0.17555085010895577,-0.18899421820446816,0.705442341216703,0.8211513534536667,-0.6279167243828072,0.3560565147350949,0.7183493707507906,-0.9679765408978158,-0.012096665650124905,0.3648569970727788,-0.659942380496186,-0.05848814084820548,0.5733255341294967,-0.17978744553706338,0.7582311224842586,0.3650706624637914,-0.21684722403666568,0.5813115960400126,-0.5141448026585411,0.18767052540019247,0.5805586757167489,0.007690199574946988,-0.5608386025606917,0.7274598299459525,-0.5234731467249825,0.6588882740842534,-0.06677271301397858,-0.3744726842000874,-0.30083019109062703,-0.24367361705950458,-0.7336959174161878,0.5609096525801064,0.7784266094254988,-0.9958770308299134,-0.5259238494183245,-0.37435375217311895,-0.7073900766961779,0.3530081548722573,0.07459121544503194,-0.4655552007200355,-0.004321180246737281,-0.07616931715879346,0.3445055155020569,-0.46182107276066464,0.3128171853276697,0.1515099055370523,-0.7135644747836538,-0.4833064346714979,-0.5150488910194926,-0.38040814253290134,-0.6594001468903372,-0.4069464160089271,0.7184624017601406,-0.8983144750140857,0.5492588293678795,-0.2773850820888691,0.6624798818972374,-0.3162104510820841,-0.15629930613308193,0.44982362583801777,-0.5646259502105092,0.3031517879202813,0.006068163389685998,0.07610821527258468,0.504691861505156,0.8961605254568792,0.1477749187353131,-0.7812774595129485,-0.07097723908741843,0.38622956875301573,0.17808478074130618,-0.9050805813744451,-0.08569402960306385,-0.5456620738170573,-0.05921412230795275,-0.5329415353801537,-0.7560454267716159,-0.9926698525685153,0.6375693624239943,0.5712570048806946,0.21347120741301562,-0.8254594367866095,-0.2700918369750567,-0.5370389593728432,0.8104782060154876,0.2426360218653634,-0.3423839011605915,0.18778941258761953,0.8999057360591164,-0.5391673994066417,-0.3946407643714254,-0.8020492680990471,0.7529773951614182,0.441858874885036,0.5973038999783833,1.1902993944139757,-0.4854209184117179,0.9623897734843582,0.7350727714953348,0.3452015581317549,-0.4001731970651327,-0.23818691623631175,0.24073403297475757,-0.4216508886526299,0.45317974848268877,0.16480166878729202,-0.24001544840149253,-0.29357988376055305,-0.5306190341430104,-0.32568962016932246,0.4729155414280693,-0.5959419161739179,0.37103621749839427,0.8851818882396301,0.15797787674936,-0.8258600764036017,1.032320637432024,0.30715925951882855,0.40005626967808683,0.3857749720502353,1.07815852265532,1.0040266893040362,1.0312899742995836,1.919219850283153,1.246099506934526,0.7057642262618651,-0.18443694378941675,0.4035356660139759,-0.7225173420786051,-0.3206989618918324,-0.1312887891309044,0.09192958372577863,-1.242011795196982,-0.5985195680362869,0.7224108887062105,-0.8551630288209442,-0.40248628002004705,0.5166767895140025,0.6351336571538233,-0.41122707173884704,-0.8511612928959796,-0.6511237917344869,0.7589779919976685,0.7938135704077744,0.8937673706393744,0.7921341872134062,0.9946631352271998,0.4171292200184575,0.503910979239284,1.0276995406424947,0.7068681544246362,0.6972330229328002,1.2579814518931887,1.8262493831636013,0.5499578702057457,-0.215431206393997,0.033547509816803725,0.13237060217688393,-0.7999824599707481,-0.6612729080167175,-1.0812809427814365,-0.749706870236986,-0.421557000902069,-0.2952581566627641,0.8056610353970786,-0.9133715446549673,-0.6643991085072358,-0.8187754481564611,0.17889361830963,0.45681224077249394,-0.7554503609230993,-0.3690772761883172,0.10101990057504007,0.6979643943300755,-0.12379641638623959,-0.35147271564236315,-0.3127900048058425,-0.47950451297160734,0.9982582356552755,0.13480963735981277,1.0865193254341234,1.1352711671142603,0.24393772240133482,0.17267500037808728,0.6462767873236609,-0.7348714423374444,-0.23902685584884606,-0.9701263263794443,-0.17382549866050595,-1.3662503581505865,0.4772909624397228,0.8415804650185567,0.7158097344991469,0.22310974038637874,-0.3666603064466461,0.9436313995471488,-0.3250175212171766,0.4530785029885656,-0.37001802405988526,0.013726761784081987,0.6801220996181161,-0.7202279825267202,0.19861412822655708,0.5298200112535122,-0.12701129548442244,-0.13642278974291874,1.0260380816211538,1.1709314720814985,1.7817165904413055,0.7103178462280013,2.0518429773314417,0.41072738861365465,1.3185651309284188,0.7043772111290927,0.7843530435685065,0.050136933966181116,-0.5849853701781302,-0.9960942583290825,-1.0804350019637694,0.6172015150350628,0.30826114531619914,-0.559825894642207,-0.25818871080415595,0.22878573520777543,0.5191909991667435,-0.7233024991526593,-0.17199886763738162,-0.9070362394747615,0.08621593955382012,-1.0252943228245517,-0.35377525316926695,-0.16098730470245268,-0.41664246228935053,-0.8244672457069294,-0.17119266068306047,1.1122652825036632,1.260545647649059,1.0501826488239503,2.319818186020343,0.7758581041012963,0.1405181789941602,0.35766354953916785,-0.01644547998471943,-0.8475601930968366,-0.7124560209420792,-0.6723812541582295,-0.049997947427853164,0.1367067669042766,-0.13345725238094394,-0.03568357190461524,0.8572070454230646,-0.09690981586627424,-0.5334630578258949,0.7345642165445133,-0.6831579841662413,-0.2690233135352773,-0.7489345987414856,-0.6965554730336203,-0.6840033416952412,-0.6592626943508403,-2.3230021717273543,-1.734129106923038,-1.4370241042199539,-0.19234879892636245,1.8134159218545443,0.7147107238095566,1.157269031205042,0.702189699269762,0.7897983485067412,1.1605523330602525,0.42948242985147683,-0.4424752919325339,-1.3507322060485616,-0.6036335593140574,-0.15778020814004695,-0.280554855769524,-0.19910245467669746,0.1543939129111053,-0.5013412089007655,-0.3915353371643851,-0.5315042483393759,-0.0820840339538407,-1.178067527728681,-1.240890819645465,-0.5206453261888141,-0.5950820938767788,-1.3093969560392589,-1.5893494409657087,-1.3510475503585986,-2.5207192408810024,-2.0458279994647395,0.5705220089874884,2.209391345527243,0.43592025901833625,1.4834866917071003,1.3234826573734852,0.6263381198914145,0.36730867775529685,0.8273535542111221,-0.5823643632731712,-0.5817924226629877,0.3857735693555619,0.659484364693947,-0.4733953936855321,0.5035028149299806,-0.22063720510220264,0.47449903679135225,-0.3883392131472352,0.15600514023552603,-0.7812990019888165,-1.2140880162778247,-1.9885618354107564,-1.2414528135302185,-1.3317663055582152,-0.39164713920354366,-1.2447548641463737,-1.7016015541998155,-3.311562799880554,-3.0884933923344438,-0.9648472965777797,1.3129575706545933,0.6071634795389905,0.812603683469882,-0.28999472920693814,0.9474230231605827,0.8902321749309731,-0.4937842062878972,0.5169201438852862,-0.5762427527871705,-0.49400739278751793,-0.7235709203119487,-0.10511936983198436,-0.04534365336613103,-0.8465428005309701,-0.8590495607510131,-0.846308842980264,0.4412012098389632,0.2722897431586686,-1.0466236119500465,-2.0896139808482705,-1.0038394320528146,-2.3908144186337563,-0.6181443841291457,-1.914079518258826,-1.4370615527396862,-1.7150348597857985,-1.5611724511264335,-1.4159379480261909,0.26772987471984144,-0.06449256666001739,-0.5165131816390782,-0.4737724913820489,0.20118180403093863,0.3761258128956546,-1.1694395798094808,0.21949931265155156,-0.5226449818259989,0.31962813873303897,0.36193923014868695,0.5263068045191429,0.37790074086654163,-0.9089778577565643,-0.637459767512116,-0.8145482212854285,-0.31636107384767403,-0.5097270356002649,-0.03598497180646993,-0.4511949301002517,-1.3022673822816861,-1.5536019519453725,-1.6580263573543592,-0.5328636394739528,-0.9860032461808782,-1.7908022300054138,-1.4187970612297625,0.08804399340186407,-1.3240351274592643,-0.43774113028387507,0.3117631184760044,-0.2809319274413003,0.24042544515138223,-0.656846859501477,0.45152449406880624,-0.33400568024973326,-0.25458559149271076,0.21947988047117684,0.031178703611341962,-0.4839935201061836,-0.3014519620885329,0.5438369161786656,0.6780124557503182,-0.6069624902295853,-0.6705639799875084,-0.2608369174860138,0.18801539284585322,-0.8606287838003583,-1.0861289371328373,-0.363806495900891,-0.24292561927317033,-0.5887785622700459,-0.4576322673426804,-0.2665787532624102,-0.9542606998461517,-1.2866393943542338,-0.7077851286214732,-0.03444070227724872,-0.38218756403046933,0.04911926026644748,0.11619712988310105,-0.5044147156907752,-0.0639748016269228,-0.5267476464688398,-0.5114597736031693,0.7558814590854009,-0.9769994059341298,-0.26156787418970434,-0.7371170864681486,0.9739131682452621,0.4247158197509037,0.08522367404953361,0.5933722624259773,-0.6192758417704897,-0.4439535263855196,-1.2212822157590737,-0.6435070319678495,-0.8320580984871275,-0.15104496271931975,-0.4210589663749378,-0.39232982883157125,-1.4856049981694013,-0.16770921759704796,0.14256057992658683,-0.0517276323193253,-0.6180051789989921,0.4117340856250892,0.3176189516684704,-0.5901716817272312,-0.25387287886903825,-1.3730888881494685,-1.0181307566747042,-0.9308892654175189,-0.5020290563618016,0.48562078793841845,-0.33220953895957317,0.9867320863301172,0.37774645984939625,-0.40442115126249006,-0.8784823792580541,0.41282500899991015,-0.03703235199796723,0.9223926336591823,0.23996062246105218,-0.7400453432729539,-0.28772142295760417,0.7291847522343019,0.5038807515541218,-0.7605997427217008,0.02587838410411589,-0.32853329947846915,0.03534092646893944,-1.580678880391954,-0.3647621386406178,0.6094692906345551,0.17376159073968497,-0.7438657772528374,-0.7927077395273926,0.13267068912198043,-0.42792657741920864,0.43852534988123393,0.5709849395746578,-0.11940582655028999,0.8627109292273389,-0.6220012032814656,-0.9350180506084174,-0.43738813654450687,0.17603227335956934,0.7876860206441086,0.12220658525892063,1.00198845252302,0.45112655794430445,0.5802986995498133,-0.23220801505699357,-0.028364628120312783,-1.0580175779463286,-0.8108756976917718,-0.4562354094650512,-0.37788347347093937,-0.6997236499187179,0.1866677104762655,-0.21890205524865922,-0.4464555103903259,-0.3199382442903031,-0.8461257436988192,0.24944692292073622,-0.8252893159774325,0.13857829154530432,-0.5183660735916469,0.017839782000645222,0.7572542220196975,0.06036939421148343,-0.6527566065760012,-0.08156946544057318,0.06604004140106874,0.37946390318634543,0.17100791098839355,0.1520380965424576,0.3795796809919291,-0.2574938158679867,-0.3117605529501936,0.5217396453479084,-0.11815268844240595,-0.7589774023658695,-0.6975098321797663,0.6539875930315135,-0.20904289004328283,0.40077895063103913,0.44268969364797117,-0.028973491811098023,-0.7551034980769978,0.4575929928509209,-0.5595948382374902,-0.3788595066045931,0.9690987391025372,0.16952362508143573,0.3368128104687933,0.1608599059626959,0.591876724674679,0.3559687081079955,-0.6045245665123702,-0.576437354644362,-0.10804319061239402,-0.661661591613665,-0.3015803733707911,-0.08086309148963286,1.2530309736777747,0.2764094787947909,-0.34416888192463496,0.8928584604584869,-0.10123220400729474,0.26820105831140184,-0.9587114255502113,0.03600828059274127,0.35142795644797115,-0.11542995064468298,-0.1184305720747866,-0.08042594391043374,0.3098456668780332,1.1463017609735922,1.1608291406962825,-0.3346143559812918,-0.14062032354332188,1.3174411662961016,1.071974341651326,-0.47495794671317804,0.5866474707477445,-0.8888257344984729,0.46165382932965726,0.16946392005007782,-0.17763164875754683,0.9448008194258858,0.9102392269021121,0.7179779126183699,1.143740312192772,-0.06370177694774715,0.635287520068273,0.0739245708755842,0.9962433560139514,-0.4914213727235937,0.658963384306273,1.0854850505284848,0.7196440975714598,1.0066022605273441,-0.05296351488196973,-0.3407126023507357,0.30934607147705456,-0.24820083793797695,0.7284896067269393,1.3447453279982067,0.4077357651727146,1.356991943813238,0.38573580888021525,1.02118784078742,0.987085003953358,-0.28786963244818975,-0.9154849153306259,0.7746691163285759,0.1755983538427278,0.671648948704198,-0.43110269802526957,1.3044382749733463,0.3669279690453017,1.59410672787908,-0.02826090770532096,-0.10735128609546035,1.3541033049705928,-0.0922561920489043,0.07089811906312467,-0.35549497207720754,0.3566268214029435,0.6123755550980731,-0.31853394780577515,0.2483886783155033,-0.5826725334244871,-0.1610476202495951,-0.42109827922920834,0.504956400456774,0.5228679995647691,0.035193373530665185,0.43466392638630735,0.978018197177868,0.48532861941301453,0.9557198953165345,-0.608275822994685,0.15147905867158215,-0.37495441234939675,-0.8703708526272799,0.11954181765963086,1.2075812338734067,0.7047314573701836,0.7545856103660554,0.7491619960776178,1.028983223409268,1.6600388472770544,1.049017634344953,0.6066902646047696,-0.8379437944728793,0.12834979308826314,0.10462007209212573,-0.4181193129191007,-0.10301468954600725,0.7993790008457352,-0.6087490976763655,-0.6811704002697048,1.263705745496976,0.04325122096319056,0.40585651961087327,-0.38965305898828684,0.21058566172521495,0.29248778798727476,0.42717243366904833,0.02987545707829979,0.12293603679803677,-0.03666891583172327,0.1603065005069662,0.6485772681469808,-0.03600595964809952,0.7574615598283746,1.3067325545259556,0.9068898778323852,0.8869001775187282,-0.18274777131713674,0.5243588064438083,0.14433620047603976,-0.39538735529887775,0.18970064545255505,-0.0438749682321707,-0.23103753101383814,-0.4353544304711754,-0.122708231907751,-0.7226737496501708,-0.30972917476753264,0.6392881448207784,0.7152839537247533,-0.4594154164901667,0.6817944266398515,-0.34246795845239586,0.33617122016695555,0.1110047127144576,0.6643766470116026,0.6802248287946977,-0.9107341682847796,0.4576187649474368,0.28257826235961514,0.009136095115245497,-0.22683133575267092,0.2371783762580174,0.6399701548195477,-0.2310392756972568,0.08120571838345073,-0.8256017851219963,0.29476780680573605,0.5784591476348552,-0.0031426915507534806,0.2074109471230544,0.3994871811061963,-0.16868116651607445,-0.3772849199735245,-0.8180733297910624,-0.7760579537169224,-1.443253022352372,-0.12032732596316197,0.3640935161240267,-0.3301871926299349,-0.5740514987753039,-0.06380758444851689,-0.5374368788760769,-0.8702120341919974,0.6868833826733844,-0.2010143337215955,-0.06986235561900776,0.033101514559710415,-0.0074376237719336975,-0.9935218185562065,0.7204741149451206,-0.7114190132999753,